{"learner":{"attributes":{"scikit_learn":"{\"_estimator_type\": \"regressor\"}"},"feature_names":["Ram","Weight","Touchscreen","ClockRate","SSD","HDD","Hybrid","Flash Storage","Company_Apple","Company_Asus","Company_Chuwi","Company_Dell","Company_Fujitsu","Company_Google","Company_HP","Company_Huawei","Company_LG","Company_Lenovo","Company_MSI","Company_Mediacom","Company_Microsoft","Company_Razer","Company_Samsung","Company_Toshiba","Company_Vero","Company_Xiaomi","TypeName_Gaming","TypeName_Netbook","TypeName_Notebook","TypeName_Ultrabook","TypeName_Workstation","Inches_11.3","Inches_11.6","Inches_12","Inches_12.3","Inches_12.5","Inches_13","Inches_13.3","Inches_13.5","Inches_13.9","Inches_14","Inches_14.1","Inches_15","Inches_15.4","Inches_15.6","Inches_17","Inches_17.3","Inches_18.4","Inches_24","Inches_25.6","Inches_27.3","Inches_31.6","Inches_33.5","Inches_35.6","Gpu_AMD FirePro W4190M ","Gpu_AMD FirePro W5130M","Gpu_AMD FirePro W6150M","Gpu_AMD R17M-M1-70","Gpu_AMD R4 Graphics","Gpu_AMD Radeon 520","Gpu_AMD Radeon 530","Gpu_AMD Radeon 540","Gpu_AMD Radeon Pro 455","Gpu_AMD Radeon Pro 555","Gpu_AMD Radeon Pro 560","Gpu_AMD Radeon R2","Gpu_AMD Radeon R2 Graphics","Gpu_AMD Radeon R3","Gpu_AMD Radeon R4","Gpu_AMD Radeon R4 Graphics","Gpu_AMD Radeon R5","Gpu_AMD Radeon R5 430","Gpu_AMD Radeon R5 520","Gpu_AMD Radeon R5 M315","Gpu_AMD Radeon R5 M330","Gpu_AMD Radeon R5 M420","Gpu_AMD Radeon R5 M420X","Gpu_AMD Radeon R5 M430","Gpu_AMD Radeon R7","Gpu_AMD Radeon R7 Graphics","Gpu_AMD Radeon R7 M360","Gpu_AMD Radeon R7 M365X","Gpu_AMD Radeon R7 M440","Gpu_AMD Radeon R7 M445","Gpu_AMD Radeon R7 M460","Gpu_AMD Radeon R7 M465","Gpu_AMD Radeon R9 M385","Gpu_AMD Radeon RX 540","Gpu_AMD Radeon RX 550","Gpu_AMD Radeon RX 560","Gpu_AMD Radeon RX 580","Gpu_ARM Mali T860 MP4","Gpu_Intel Graphics 620","Gpu_Intel HD Graphics","Gpu_Intel HD Graphics 400","Gpu_Intel HD Graphics 405","Gpu_Intel HD Graphics 500","Gpu_Intel HD Graphics 505","Gpu_Intel HD Graphics 510","Gpu_Intel HD Graphics 515","Gpu_Intel HD Graphics 520","Gpu_Intel HD Graphics 530","Gpu_Intel HD Graphics 5300","Gpu_Intel HD Graphics 540","Gpu_Intel HD Graphics 6000","Gpu_Intel HD Graphics 615","Gpu_Intel HD Graphics 620","Gpu_Intel HD Graphics 620 ","Gpu_Intel HD Graphics 630","Gpu_Intel Iris Graphics 540","Gpu_Intel Iris Graphics 550","Gpu_Intel Iris Plus Graphics 640","Gpu_Intel Iris Plus Graphics 650","Gpu_Intel Iris Pro Graphics","Gpu_Intel UHD Graphics 620","Gpu_Nvidia GTX 980 SLI","Gpu_Nvidia GeForce 150MX","Gpu_Nvidia GeForce 920","Gpu_Nvidia GeForce 920M","Gpu_Nvidia GeForce 920MX","Gpu_Nvidia GeForce 920MX ","Gpu_Nvidia GeForce 930M","Gpu_Nvidia GeForce 930MX","Gpu_Nvidia GeForce 930MX ","Gpu_Nvidia GeForce 940M","Gpu_Nvidia GeForce 940MX","Gpu_Nvidia GeForce 960M","Gpu_Nvidia GeForce GT 940MX","Gpu_Nvidia GeForce GTX 1050","Gpu_Nvidia GeForce GTX 1050 Ti","Gpu_Nvidia GeForce GTX 1050M","Gpu_Nvidia GeForce GTX 1050Ti","Gpu_Nvidia GeForce GTX 1060","Gpu_Nvidia GeForce GTX 1070","Gpu_Nvidia GeForce GTX 1070M","Gpu_Nvidia GeForce GTX 1080","Gpu_Nvidia GeForce GTX 930MX","Gpu_Nvidia GeForce GTX 940M","Gpu_Nvidia GeForce GTX 940MX","Gpu_Nvidia GeForce GTX 950M","Gpu_Nvidia GeForce GTX 960","Gpu_Nvidia GeForce GTX 960_U+039C_","Gpu_Nvidia GeForce GTX 960M","Gpu_Nvidia GeForce GTX 965M","Gpu_Nvidia GeForce GTX 970M","Gpu_Nvidia GeForce GTX 980 ","Gpu_Nvidia GeForce GTX 980M","Gpu_Nvidia GeForce GTX1050 Ti","Gpu_Nvidia GeForce GTX1060","Gpu_Nvidia GeForce GTX1080","Gpu_Nvidia GeForce MX130","Gpu_Nvidia GeForce MX150","Gpu_Nvidia Quadro 3000M","Gpu_Nvidia Quadro M1000M","Gpu_Nvidia Quadro M1200","Gpu_Nvidia Quadro M2000M","Gpu_Nvidia Quadro M2200","Gpu_Nvidia Quadro M2200M","Gpu_Nvidia Quadro M3000M","Gpu_Nvidia Quadro M500M","Gpu_Nvidia Quadro M520M","Gpu_Nvidia Quadro M620","Gpu_Nvidia Quadro M620M","OpSys_Chrome OS","OpSys_Linux","OpSys_Mac OS X","OpSys_Windows 10","OpSys_Windows 10 S","OpSys_Windows 7","OpSys_macOS","Resolution_1440x900","Resolution_1600x900","Resolution_1920x1080","Resolution_1920x1200","Resolution_2160x1440","Resolution_2256x1504","Resolution_2304x1440","Resolution_2400x1600","Resolution_2560x1440","Resolution_2560x1600","Resolution_2736x1824","Resolution_2880x1800","Resolution_3200x1800","Resolution_3840x2160","CPU_AMD A10-Series 9620P","CPU_AMD A10-Series A10-9620P","CPU_AMD A12-Series 9700P","CPU_AMD A12-Series 9720P","CPU_AMD A4-Series 7210","CPU_AMD A6-Series 7310","CPU_AMD A6-Series 9220","CPU_AMD A6-Series A6-9220","CPU_AMD A8-Series 7410","CPU_AMD A9-Series 9410","CPU_AMD A9-Series 9420","CPU_AMD A9-Series A9-9420","CPU_AMD E-Series 6110","CPU_AMD E-Series 7110","CPU_AMD E-Series 9000","CPU_AMD E-Series 9000e","CPU_AMD E-Series E2-6110","CPU_AMD E-Series E2-9000","CPU_AMD E-Series E2-9000e","CPU_AMD FX 8800P","CPU_AMD FX 9830P","CPU_AMD Ryzen 1600","CPU_AMD Ryzen 1700","CPU_Intel Atom X5-Z8350","CPU_Intel Atom Z8350","CPU_Intel Atom x5-Z8300","CPU_Intel Atom x5-Z8350","CPU_Intel Atom x5-Z8550","CPU_Intel Celeron Dual Core 3205U","CPU_Intel Celeron Dual Core 3855U","CPU_Intel Celeron Dual Core N3050","CPU_Intel Celeron Dual Core N3060","CPU_Intel Celeron Dual Core N3350","CPU_Intel Celeron Quad Core N3160","CPU_Intel Celeron Quad Core N3450","CPU_Intel Core M","CPU_Intel Core M 6Y30","CPU_Intel Core M 6Y54","CPU_Intel Core M 6Y75","CPU_Intel Core M 7Y30","CPU_Intel Core M M3-6Y30","CPU_Intel Core M M7-6Y75","CPU_Intel Core M m3","CPU_Intel Core M m3-7Y30","CPU_Intel Core M m7-6Y75","CPU_Intel Core i3 6006U","CPU_Intel Core i3 6100U","CPU_Intel Core i3 7100U","CPU_Intel Core i3 7130U","CPU_Intel Core i5","CPU_Intel Core i5 6200U","CPU_Intel Core i5 6260U","CPU_Intel Core i5 6300HQ","CPU_Intel Core i5 6300U","CPU_Intel Core i5 6440HQ","CPU_Intel Core i5 7200U","CPU_Intel Core i5 7300HQ","CPU_Intel Core i5 7300U","CPU_Intel Core i5 7440HQ","CPU_Intel Core i5 7500U","CPU_Intel Core i5 7Y54","CPU_Intel Core i5 7Y57","CPU_Intel Core i5 8250U","CPU_Intel Core i7","CPU_Intel Core i7 6500U","CPU_Intel Core i7 6560U","CPU_Intel Core i7 6600U","CPU_Intel Core i7 6700HQ","CPU_Intel Core i7 6820HK","CPU_Intel Core i7 6820HQ","CPU_Intel Core i7 6920HQ","CPU_Intel Core i7 7500U","CPU_Intel Core i7 7560U","CPU_Intel Core i7 7600U","CPU_Intel Core i7 7660U","CPU_Intel Core i7 7700HQ","CPU_Intel Core i7 7820HK","CPU_Intel Core i7 7820HQ","CPU_Intel Core i7 7Y75","CPU_Intel Core i7 8550U","CPU_Intel Core i7 8650U","CPU_Intel Pentium Dual Core 4405U","CPU_Intel Pentium Dual Core 4405Y","CPU_Intel Pentium Dual Core N4200","CPU_Intel Pentium Quad Core N3700","CPU_Intel Pentium Quad Core N3710","CPU_Intel Pentium Quad Core N4200","CPU_Intel Xeon E3-1505M V6","CPU_Intel Xeon E3-1535M v5","CPU_Intel Xeon E3-1535M v6","CPU_Samsung Cortex A72&A53"],"feature_types":["int","float","int","float","int","int","int","int","i","i","i","i","i","i","i","i","i","i","i","i","i","i","i","i","i","i","i","i","i","i","i","i","i","i","i","i","i","i","i","i","i","i","i","i","i","i","i","i","i","i","i","i","i","i","i","i","i","i","i","i","i","i","i","i","i","i","i","i","i","i","i","i","i","i","i","i","i","i","i","i","i","i","i","i","i","i","i","i","i","i","i","i","i","i","i","i","i","i","i","i","i","i","i","i","i","i","i","i","i","i","i","i","i","i","i","i","i","i","i","i","i","i","i","i","i","i","i","i","i","i","i","i","i","i","i","i","i","i","i","i","i","i","i","i","i","i","i","i","i","i","i","i","i","i","i","i","i","i","i","i","i","i","i","i","i","i","i","i","i","i","i","i","i","i","i","i","i","i","i","i","i","i","i","i","i","i","i","i","i","i","i","i","i","i","i","i","i","i","i","i","i","i","i","i","i","i","i","i","i","i","i","i","i","i","i","i","i","i","i","i","i","i","i","i","i","i","i","i","i","i","i","i","i","i","i","i","i","i","i","i","i","i","i","i","i","i","i","i","i","i","i","i","i","i","i","i","i","i","i","i","i","i","i","i","i","i","i","i","i","i","i","i","i","i","i"],"gradient_booster":{"model":{"gbtree_model_param":{"num_parallel_tree":"1","num_trees":"1000"},"iteration_indptr":[0,1,2,3,4,5,6,7,8,9,10,11,12,13,14,15,16,17,18,19,20,21,22,23,24,25,26,27,28,29,30,31,32,33,34,35,36,37,38,39,40,41,42,43,44,45,46,47,48,49,50,51,52,53,54,55,56,57,58,59,60,61,62,63,64,65,66,67,68,69,70,71,72,73,74,75,76,77,78,79,80,81,82,83,84,85,86,87,88,89,90,91,92,93,94,95,96,97,98,99,100,101,102,103,104,105,106,107,108,109,110,111,112,113,114,115,116,117,118,119,120,121,122,123,124,125,126,127,128,129,130,131,132,133,134,135,136,137,138,139,140,141,142,143,144,145,146,147,148,149,150,151,152,153,154,155,156,157,158,159,160,161,162,163,164,165,166,167,168,169,170,171,172,173,174,175,176,177,178,179,180,181,182,183,184,185,186,187,188,189,190,191,192,193,194,195,196,197,198,199,200,201,202,203,204,205,206,207,208,209,210,211,212,213,214,215,216,217,218,219,220,221,222,223,224,225,226,227,228,229,230,231,232,233,234,235,236,237,238,239,240,241,242,243,244,245,246,247,248,249,250,251,252,253,254,255,256,257,258,259,260,261,262,263,264,265,266,267,268,269,270,271,272,273,274,275,276,277,278,279,280,281,282,283,284,285,286,287,288,289,290,291,292,293,294,295,296,297,298,299,300,301,302,303,304,305,306,307,308,309,310,311,312,313,314,315,316,317,318,319,320,321,322,323,324,325,326,327,328,329,330,331,332,333,334,335,336,337,338,339,340,341,342,343,344,345,346,347,348,349,350,351,352,353,354,355,356,357,358,359,360,361,362,363,364,365,366,367,368,369,370,371,372,373,374,375,376,377,378,379,380,381,382,383,384,385,386,387,388,389,390,391,392,393,394,395,396,397,398,399,400,401,402,403,404,405,406,407,408,409,410,411,412,413,414,415,416,417,418,419,420,421,422,423,424,425,426,427,428,429,430,431,432,433,434,435,436,437,438,439,440,441,442,443,444,445,446,447,448,449,450,451,452,453,454,455,456,457,458,459,460,461,462,463,464,465,466,467,468,469,470,471,472,473,474,475,476,477,478,479,480,481,482,483,484,485,486,487,488,489,490,491,492,493,494,495,496,497,498,499,500,501,502,503,504,505,506,507,508,509,510,511,512,513,514,515,516,517,518,519,520,521,522,523,524,525,526,527,528,529,530,531,532,533,534,535,536,537,538,539,540,541,542,543,544,545,546,547,548,549,550,551,552,553,554,555,556,557,558,559,560,561,562,563,564,565,566,567,568,569,570,571,572,573,574,575,576,577,578,579,580,581,582,583,584,585,586,587,588,589,590,591,592,593,594,595,596,597,598,599,600,601,602,603,604,605,606,607,608,609,610,611,612,613,614,615,616,617,618,619,620,621,622,623,624,625,626,627,628,629,630,631,632,633,634,635,636,637,638,639,640,641,642,643,644,645,646,647,648,649,650,651,652,653,654,655,656,657,658,659,660,661,662,663,664,665,666,667,668,669,670,671,672,673,674,675,676,677,678,679,680,681,682,683,684,685,686,687,688,689,690,691,692,693,694,695,696,697,698,699,700,701,702,703,704,705,706,707,708,709,710,711,712,713,714,715,716,717,718,719,720,721,722,723,724,725,726,727,728,729,730,731,732,733,734,735,736,737,738,739,740,741,742,743,744,745,746,747,748,749,750,751,752,753,754,755,756,757,758,759,760,761,762,763,764,765,766,767,768,769,770,771,772,773,774,775,776,777,778,779,780,781,782,783,784,785,786,787,788,789,790,791,792,793,794,795,796,797,798,799,800,801,802,803,804,805,806,807,808,809,810,811,812,813,814,815,816,817,818,819,820,821,822,823,824,825,826,827,828,829,830,831,832,833,834,835,836,837,838,839,840,841,842,843,844,845,846,847,848,849,850,851,852,853,854,855,856,857,858,859,860,861,862,863,864,865,866,867,868,869,870,871,872,873,874,875,876,877,878,879,880,881,882,883,884,885,886,887,888,889,890,891,892,893,894,895,896,897,898,899,900,901,902,903,904,905,906,907,908,909,910,911,912,913,914,915,916,917,918,919,920,921,922,923,924,925,926,927,928,929,930,931,932,933,934,935,936,937,938,939,940,941,942,943,944,945,946,947,948,949,950,951,952,953,954,955,956,957,958,959,960,961,962,963,964,965,966,967,968,969,970,971,972,973,974,975,976,977,978,979,980,981,982,983,984,985,986,987,988,989,990,991,992,993,994,995,996,997,998,999,1000],"tree_info":[0,0,0,0,0,0,0,0,0,0,0,0,0,0,0,0,0,0,0,0,0,0,0,0,0,0,0,0,0,0,0,0,0,0,0,0,0,0,0,0,0,0,0,0,0,0,0,0,0,0,0,0,0,0,0,0,0,0,0,0,0,0,0,0,0,0,0,0,0,0,0,0,0,0,0,0,0,0,0,0,0,0,0,0,0,0,0,0,0,0,0,0,0,0,0,0,0,0,0,0,0,0,0,0,0,0,0,0,0,0,0,0,0,0,0,0,0,0,0,0,0,0,0,0,0,0,0,0,0,0,0,0,0,0,0,0,0,0,0,0,0,0,0,0,0,0,0,0,0,0,0,0,0,0,0,0,0,0,0,0,0,0,0,0,0,0,0,0,0,0,0,0,0,0,0,0,0,0,0,0,0,0,0,0,0,0,0,0,0,0,0,0,0,0,0,0,0,0,0,0,0,0,0,0,0,0,0,0,0,0,0,0,0,0,0,0,0,0,0,0,0,0,0,0,0,0,0,0,0,0,0,0,0,0,0,0,0,0,0,0,0,0,0,0,0,0,0,0,0,0,0,0,0,0,0,0,0,0,0,0,0,0,0,0,0,0,0,0,0,0,0,0,0,0,0,0,0,0,0,0,0,0,0,0,0,0,0,0,0,0,0,0,0,0,0,0,0,0,0,0,0,0,0,0,0,0,0,0,0,0,0,0,0,0,0,0,0,0,0,0,0,0,0,0,0,0,0,0,0,0,0,0,0,0,0,0,0,0,0,0,0,0,0,0,0,0,0,0,0,0,0,0,0,0,0,0,0,0,0,0,0,0,0,0,0,0,0,0,0,0,0,0,0,0,0,0,0,0,0,0,0,0,0,0,0,0,0,0,0,0,0,0,0,0,0,0,0,0,0,0,0,0,0,0,0,0,0,0,0,0,0,0,0,0,0,0,0,0,0,0,0,0,0,0,0,0,0,0,0,0,0,0,0,0,0,0,0,0,0,0,0,0,0,0,0,0,0,0,0,0,0,0,0,0,0,0,0,0,0,0,0,0,0,0,0,0,0,0,0,0,0,0,0,0,0,0,0,0,0,0,0,0,0,0,0,0,0,0,0,0,0,0,0,0,0,0,0,0,0,0,0,0,0,0,0,0,0,0,0,0,0,0,0,0,0,0,0,0,0,0,0,0,0,0,0,0,0,0,0,0,0,0,0,0,0,0,0,0,0,0,0,0,0,0,0,0,0,0,0,0,0,0,0,0,0,0,0,0,0,0,0,0,0,0,0,0,0,0,0,0,0,0,0,0,0,0,0,0,0,0,0,0,0,0,0,0,0,0,0,0,0,0,0,0,0,0,0,0,0,0,0,0,0,0,0,0,0,0,0,0,0,0,0,0,0,0,0,0,0,0,0,0,0,0,0,0,0,0,0,0,0,0,0,0,0,0,0,0,0,0,0,0,0,0,0,0,0,0,0,0,0,0,0,0,0,0,0,0,0,0,0,0,0,0,0,0,0,0,0,0,0,0,0,0,0,0,0,0,0,0,0,0,0,0,0,0,0,0,0,0,0,0,0,0,0,0,0,0,0,0,0,0,0,0,0,0,0,0,0,0,0,0,0,0,0,0,0,0,0,0,0,0,0,0,0,0,0,0,0,0,0,0,0,0,0,0,0,0,0,0,0,0,0,0,0,0,0,0,0,0,0,0,0,0,0,0,0,0,0,0,0,0,0,0,0,0,0,0,0,0,0,0,0,0,0,0,0,0,0,0,0,0,0,0,0,0,0,0,0,0,0,0,0,0,0,0,0,0,0,0,0,0,0,0,0,0,0,0,0,0,0,0,0,0,0,0,0,0,0,0,0,0,0,0,0,0,0,0,0,0,0,0,0,0,0,0,0,0,0,0,0,0,0,0,0,0,0,0,0,0,0,0,0,0,0,0,0,0,0,0,0,0,0,0,0,0,0,0,0,0,0,0,0,0,0,0,0,0,0,0,0,0,0,0,0,0,0,0,0,0,0,0,0,0,0,0,0,0,0,0,0,0,0,0,0,0,0,0,0,0,0,0,0,0,0,0,0,0,0,0,0,0,0,0,0,0,0,0,0,0,0,0,0,0,0,0,0,0,0,0,0,0,0,0,0,0,0,0,0,0,0,0,0,0,0,0,0,0,0,0,0,0,0,0,0,0,0,0,0,0,0,0,0,0,0,0,0,0,0,0,0,0,0,0,0,0,0,0,0,0,0,0,0,0,0,0,0,0,0,0],"trees":[{"base_weights":[-1.6292883E-5,2.6207974E2,-2.3435733E2,1.8327101E2,9.231587E2,-3.3876923E2,-5.0512337E1,-6.4309006E1,3.1108466E2,8.3506683E2,1.1885176E2,-3.5252203E2,9.7684906E2,-7.6929306E1,2.417037E2,-5.5902522E-2,-2.5240414E1,1.2736727E1,2.2452204E1,3.2753796E1,5.1456215E1,-2.1021143E1,-1.2740906E1,6.672716E1,2.7537944E0,2.8663445E0,-7.320031E0,2.0402945E1,1.8527125E0],"categories":[],"categories_nodes":[],"categories_segments":[],"categories_sizes":[],"default_left":[0,0,0,0,0,0,0,0,0,0,0,0,0,0,0,0,0,0,0,0,0,0,0,0,0,0,0,0,0],"id":0,"left_children":[1,3,5,7,9,11,13,15,17,19,-1,21,23,25,27,-1,-1,-1,-1,-1,-1,-1,-1,-1,-1,-1,-1,-1,-1],"loss_changes":[5.939344E7,2.3698504E7,9.7908E6,1.2936619E7,5.219128E6,6.061596E6,1.441257E6,3.8827795E6,2.037906E6,1.287104E6,0E0,2.085956E6,1.1172442E6,1.594442E6,5.201297E5,0E0,0E0,0E0,0E0,0E0,0E0,0E0,0E0,0E0,0E0,0E0,0E0,0E0,0E0],"parents":[2147483647,0,0,1,1,2,2,3,3,4,4,5,5,6,6,7,7,8,8,9,9,11,11,12,12,13,13,14,14],"right_children":[2,4,6,8,10,12,14,16,18,20,-1,22,24,26,28,-1,-1,-1,-1,-1,-1,-1,-1,-1,-1,-1,-1,-1,-1],"split_conditions":[1E0,3.4E0,1.8E2,1.8E2,1E0,1E0,5.12E2,1E0,5.12E2,4.36E0,1.1885176E2,1E0,8E0,1.85E0,1E0,-5.5902522E-2,-2.5240414E1,1.2736727E1,2.2452204E1,3.2753796E1,5.1456215E1,-2.1021143E1,-1.2740906E1,6.672716E1,2.7537944E0,2.8663445E0,-7.320031E0,2.0402945E1,1.8527125E0],"split_indices":[28,1,4,4,21,183,4,94,4,1,0,172,4,1,263,0,0,0,0,0,0,0,0,0,0,0,0,0,0],"split_type":[0,0,0,0,0,0,0,0,0,0,0,0,0,0,0,0,0,0,0,0,0,0,0,0,0,0,0,0,0],"sum_hessian":[9.66E2,4.56E2,5.1E2,4.08E2,4.8E1,3.25E2,1.85E2,1.39E2,2.69E2,4.6E1,2E0,3.22E2,3E0,1.7E2,1.5E1,1.22E2,1.7E1,1.92E2,7.7E1,2.5E1,2.1E1,1.89E2,1.33E2,2E0,1E0,5.8E1,1.12E2,8E0,7E0],"tree_param":{"num_deleted":"0","num_feature":"275","num_nodes":"29","size_leaf_vector":"1"}},{"base_weights":[1.378278E-1,-1.3151642E2,5.5478864E2,-3.702343E2,3.0072556E1,4.7781995E2,1.2800363E3,-3.8247784E2,-2.9949862E1,2.0335712E2,-4.3784645E1,4.239355E2,4.181901E1,1.0771451E3,1.1409768E2,-1.9883179E1,-8.120035E0,3.3223526E0,-7.0575385E0,1.1348666E1,-4.879652E0,-3.7366142E0,3.1341724E1,1.935482E1,4.6934914E1,-5.031431E0,5.809204E1],"categories":[],"categories_nodes":[],"categories_segments":[],"categories_sizes":[],"default_left":[0,0,0,0,0,0,0,0,0,0,0,0,0,0,0,0,0,0,0,0,0,0,0,0,0,0,0],"id":1,"left_children":[1,3,5,7,9,11,13,15,17,19,21,23,-1,25,-1,-1,-1,-1,-1,-1,-1,-1,-1,-1,-1,-1,-1],"loss_changes":[7.061238E7,3.0151292E7,1.0049048E7,1.308732E6,5.9748645E6,3.078276E6,2.328404E6,9.85364E5,1.27962914E5,1.0025435E6,6.820383E6,2.615416E6,0E0,1.604622E6,0E0,0E0,0E0,0E0,0E0,0E0,0E0,0E0,0E0,0E0,0E0,0E0,0E0],"parents":[2147483647,0,0,1,1,2,2,3,3,4,4,5,5,6,6,7,7,8,8,9,9,10,10,11,11,13,13],"right_children":[2,4,6,8,10,12,14,16,18,20,22,24,-1,26,-1,-1,-1,-1,-1,-1,-1,-1,-1,-1,-1,-1,-1],"split_conditions":[1.6E1,8E0,3.2E1,1E0,1.55E0,1E0,1E0,1E0,1.27E0,1E0,1E0,1E0,4.181901E1,1.41E0,1.1409768E2,-1.9883179E1,-8.120035E0,3.3223526E0,-7.0575385E0,1.1348666E1,-4.879652E0,-3.7366142E0,3.1341724E1,1.935482E1,4.6934914E1,-5.031431E0,5.809204E1],"split_indices":[0,0,0,29,1,133,21,234,1,9,30,30,0,1,0,0,0,0,0,0,0,0,0,0,0,0,0],"split_type":[0,0,0,0,0,0,0,0,0,0,0,0,0,0,0,0,0,0,0,0,0,0,0,0,0,0,0],"sum_hessian":[9.66E2,7.81E2,1.85E2,3.15E2,4.66E2,1.68E2,1.7E1,3.04E2,1.1E1,1.39E2,3.27E2,1.47E2,2.1E1,1.5E1,2E0,2.84E2,2E1,6E0,5E0,1.29E2,1E1,3.13E2,1.4E1,1.38E2,9E0,1E0,1.4E1],"tree_param":{"num_deleted":"0","num_feature":"275","num_nodes":"27","size_leaf_vector":"1"}},{"base_weights":[2.745536E-1,-1.249391E2,5.277912E2,-3.517729E2,2.8605452E1,4.60829E2,1.3015924E3,-4.4038373E2,-2.5561713E2,1.4670668E2,-9.902862E1,3.9735562E2,9.750317E2,9.502375E2,1.9767991E3,-2.2814178E1,-1.2340967E1,-3.5109383E-1,-1.4874949E1,5.891916E0,2.9828674E1,-1.0751262E1,-6.5521836E-1,2.9596899E1,1.6761E1,5.040138E1,1.3253428E1,5.1402534E1,7.0337424E0,3.8339073E1,1.1064892E2],"categories":[],"categories_nodes":[],"categories_segments":[],"categories_sizes":[],"default_left":[0,0,0,0,0,0,0,0,0,0,0,0,0,0,0,0,0,0,0,0,0,0,0,0,0,0,0,0,0,0,0],"id":2,"left_children":[1,3,5,7,9,11,13,15,17,19,21,23,25,27,29,-1,-1,-1,-1,-1,-1,-1,-1,-1,-1,-1,-1,-1,-1,-1,-1],"loss_changes":[6.3872504E7,2.722397E7,9.311856E6,2.631912E6,7.039164E6,5.403728E6,2.500726E6,4.46886E5,1.586729E6,3.114178E6,2.2361655E6,1.756676E6,2.9978E5,5.89133E5,4.37578E5,0E0,0E0,0E0,0E0,0E0,0E0,0E0,0E0,0E0,0E0,0E0,0E0,0E0,0E0,0E0,0E0],"parents":[2147483647,0,0,1,1,2,2,3,3,4,4,5,5,6,6,7,7,8,8,9,9,10,10,11,11,12,12,13,13,14,14],"right_children":[2,4,6,8,10,12,14,16,18,20,22,24,26,28,30,-1,-1,-1,-1,-1,-1,-1,-1,-1,-1,-1,-1,-1,-1,-1,-1],"split_conditions":[1.6E1,8E0,2.9E0,2.3E0,1E0,4.36E0,1E0,1E0,1.55E0,1E0,1.8E2,1E0,5.8E0,3E0,2.4E1,-2.2814178E1,-1.2340967E1,-3.5109383E-1,-1.4874949E1,5.891916E0,2.9828674E1,-1.0751262E1,-6.5521836E-1,2.9596899E1,1.6761E1,5.040138E1,1.3253428E1,5.1402534E1,7.0337424E0,3.8339073E1,1.1064892E2],"split_indices":[0,0,3,3,28,1,183,246,1,30,4,172,1,3,0,0,0,0,0,0,0,0,0,0,0,0,0,0,0,0,0],"split_type":[0,0,0,0,0,0,0,0,0,0,0,0,0,0,0,0,0,0,0,0,0,0,0,0,0,0,0,0,0,0,0],"sum_hessian":[9.66E2,7.81E2,1.85E2,3.15E2,4.66E2,1.71E2,1.4E1,1.63E2,1.52E2,2.42E2,2.24E2,1.53E2,1.8E1,1E1,4E0,1.5E2,1.3E1,2.2E1,1.3E2,2.28E2,1.4E1,9.5E1,1.29E2,3.6E1,1.17E2,1.7E1,1E0,9E0,1E0,1E0,3E0],"tree_param":{"num_deleted":"0","num_feature":"275","num_nodes":"31","size_leaf_vector":"1"}},{"base_weights":[4.1156062E-1,-1.18708824E2,5.0225726E2,-3.342641E2,2.7201246E1,4.381083E2,1.2436653E3,-4.1847205E2,-2.428862E2,1.39445E2,-9.410259E1,3.7763885E2,9.280005E2,9.055083E2,1.8945133E3,-2.1268415E1,-1.0959038E1,-3.339302E-1,-1.4134053E1,5.597965E0,2.838867E1,-1.3600554E1,-2.0511415E0,2.8137327E1,1.5926517E1,4.7953316E1,1.2811647E1,4.8967678E1,6.7992835E0,3.70611E1,1.05906815E2],"categories":[],"categories_nodes":[],"categories_segments":[],"categories_sizes":[],"default_left":[0,0,0,0,0,0,0,0,0,0,0,0,0,0,0,0,0,0,0,0,0,0,0,0,0,0,0,0,0,0,0],"id":3,"left_children":[1,3,5,7,9,11,13,15,17,19,21,23,25,27,29,-1,-1,-1,-1,-1,-1,-1,-1,-1,-1,-1,-1,-1,-1,-1,-1],"loss_changes":[5.7807228E7,2.4584042E7,8.550056E6,2.376872E6,6.358237E6,4.905206E6,2.333538E6,1.7809E5,1.432533E6,2.8231465E6,2.1144505E6,1.589884E6,2.63204E5,5.3008E5,3.75557E5,0E0,0E0,0E0,0E0,0E0,0E0,0E0,0E0,0E0,0E0,0E0,0E0,0E0,0E0,0E0,0E0],"parents":[2147483647,0,0,1,1,2,2,3,3,4,4,5,5,6,6,7,7,8,8,9,9,10,10,11,11,12,12,13,13,14,14],"right_children":[2,4,6,8,10,12,14,16,18,20,22,24,26,28,30,-1,-1,-1,-1,-1,-1,-1,-1,-1,-1,-1,-1,-1,-1,-1,-1],"split_conditions":[1.6E1,8E0,2.9E0,2.3E0,1E0,4.36E0,1E0,1E0,1.55E0,1E0,1E0,1E0,5.8E0,3E0,2.4E1,-2.1268415E1,-1.0959038E1,-3.339302E-1,-1.4134053E1,5.597965E0,2.838867E1,-1.3600554E1,-2.0511415E0,2.8137327E1,1.5926517E1,4.7953316E1,1.2811647E1,4.8967678E1,6.7992835E0,3.70611E1,1.05906815E2],"split_indices":[0,0,3,3,28,1,183,114,1,30,172,172,1,3,0,0,0,0,0,0,0,0,0,0,0,0,0,0,0,0,0],"split_type":[0,0,0,0,0,0,0,0,0,0,0,0,0,0,0,0,0,0,0,0,0,0,0,0,0,0,0,0,0,0,0],"sum_hessian":[9.66E2,7.81E2,1.85E2,3.15E2,4.66E2,1.71E2,1.4E1,1.63E2,1.52E2,2.42E2,2.24E2,1.53E2,1.8E1,1E1,4E0,1.57E2,6E0,2.2E1,1.3E2,2.28E2,1.4E1,5.1E1,1.73E2,3.6E1,1.17E2,1.7E1,1E0,9E0,1E0,1E0,3E0],"tree_param":{"num_deleted":"0","num_feature":"275","num_nodes":"31","size_leaf_vector":"1"}},{"base_weights":[5.3335434E-1,-1.1279153E2,4.7796262E2,-3.176249E2,2.5860836E1,4.0963348E2,1.1222184E3,-3.97647E2,-2.3078935E2,1.3254283E2,-8.943232E1,3.5980627E2,3.7097256E1,8.6722003E2,1.7625226E3,-2.0139225E1,-5.262512E0,-1.2174337E1,6.5356293E0,8.522561E0,-4.5450573E0,-4.7573185E0,3.9588562E1,1.6487349E1,4.4946507E1,-5.9533E0,4.7544277E1,1.0136794E2,2.785318E1],"categories":[],"categories_nodes":[],"categories_segments":[],"categories_sizes":[],"default_left":[0,0,0,0,0,0,0,0,0,0,0,0,0,0,0,0,0,0,0,0,0,0,0,0,0,0,0,0,0],"id":4,"left_children":[1,3,5,7,9,11,13,15,17,19,21,23,-1,25,27,-1,-1,-1,-1,-1,-1,-1,-1,-1,-1,-1,-1,-1,-1],"loss_changes":[5.2319064E7,2.2199204E7,7.936128E6,2.146446E6,5.743739E6,2.656572E6,2.09309E6,2.24412E5,7.15909E5,2.061819E6,1.1680779E6,2.24213E6,0E0,1.170604E6,8.71939E5,0E0,0E0,0E0,0E0,0E0,0E0,0E0,0E0,0E0,0E0,0E0,0E0,0E0,0E0],"parents":[2147483647,0,0,1,1,2,2,3,3,4,4,5,5,6,6,7,7,8,8,9,9,10,10,11,11,13,13,14,14],"right_children":[2,4,6,8,10,12,14,16,18,20,22,24,-1,26,28,-1,-1,-1,-1,-1,-1,-1,-1,-1,-1,-1,-1,-1,-1],"split_conditions":[1.6E1,8E0,3.2E1,2.3E0,1E0,1E0,2.9E0,1E0,1E0,1E0,1E0,2.9E0,3.7097256E1,1.9E0,1E0,-2.0139225E1,-5.262512E0,-1.2174337E1,6.5356293E0,8.522561E0,-4.5450573E0,-4.7573185E0,3.9588562E1,1.6487349E1,4.4946507E1,-5.9533E0,4.7544277E1,1.0136794E2,2.785318E1],"split_indices":[0,0,0,3,28,133,3,29,35,128,162,3,0,3,18,0,0,0,0,0,0,0,0,0,0,0,0,0,0],"split_type":[0,0,0,0,0,0,0,0,0,0,0,0,0,0,0,0,0,0,0,0,0,0,0,0,0,0,0,0,0],"sum_hessian":[9.66E2,7.81E2,1.85E2,3.15E2,4.66E2,1.68E2,1.7E1,1.63E2,1.52E2,2.42E2,2.24E2,1.47E2,2.1E1,1.3E1,4E0,1.6E2,3E0,1.47E2,5E0,2.07E2,3.5E1,2.23E2,1E0,1.4E2,7E0,1E0,1.2E1,3E0,1E0],"tree_param":{"num_deleted":"0","num_feature":"275","num_nodes":"29","size_leaf_vector":"1"}},{"base_weights":[6.5003633E-1,-1.0714699E2,4.5479047E2,-3.0179288E2,2.4609383E1,3.8944418E2,1.0709879E3,-3.7784232E2,-2.1926839E2,1.2592387E2,-8.4883125E1,3.4202417E2,3.5285534E1,8.253995E2,1.6887544E3,-1.962364E1,-1.0037269E1,-5.6544037E0,-1.344955E1,4.959759E0,2.7139444E1,-9.636E0,-2.5154552E-1,2.7207304E1,1.3469838E1,-5.7548566E0,4.5262154E1,9.702361E1,2.6924742E1],"categories":[],"categories_nodes":[],"categories_segments":[],"categories_sizes":[],"default_left":[0,0,0,0,0,0,0,0,0,0,0,0,0,0,0,0,0,0,0,0,0,0,0,0,0,0,0,0,0],"id":5,"left_children":[1,3,5,7,9,11,13,15,17,19,21,23,-1,25,27,-1,-1,-1,-1,-1,-1,-1,-1,-1,-1,-1,-1,-1,-1],"loss_changes":[4.733936E7,2.0045932E7,7.26084E6,1.938634E6,5.1803115E6,2.406368E6,1.958086E6,3.84238E5,7.899235E5,2.6750752E6,1.9326875E6,2.091944E6,0E0,1.065847E6,7.80467E5,0E0,0E0,0E0,0E0,0E0,0E0,0E0,0E0,0E0,0E0,0E0,0E0,0E0,0E0],"parents":[2147483647,0,0,1,1,2,2,3,3,4,4,5,5,6,6,7,7,8,8,9,9,10,10,11,11,13,13,14,14],"right_children":[2,4,6,8,10,12,14,16,18,20,22,24,-1,26,28,-1,-1,-1,-1,-1,-1,-1,-1,-1,-1,-1,-1,-1,-1],"split_conditions":[1.6E1,8E0,3.2E1,2.3E0,1E0,1E0,2.9E0,1E0,1E0,1E0,1.8E2,1E0,3.5285534E1,1.9E0,1E0,-1.962364E1,-1.0037269E1,-5.6544037E0,-1.344955E1,4.959759E0,2.7139444E1,-9.636E0,-2.5154552E-1,2.7207304E1,1.3469838E1,-5.7548566E0,4.5262154E1,9.702361E1,2.6924742E1],"split_indices":[0,0,0,3,28,133,3,246,44,168,4,172,0,3,5,0,0,0,0,0,0,0,0,0,0,0,0,0,0],"split_type":[0,0,0,0,0,0,0,0,0,0,0,0,0,0,0,0,0,0,0,0,0,0,0,0,0,0,0,0,0],"sum_hessian":[9.66E2,7.81E2,1.85E2,3.15E2,4.66E2,1.68E2,1.7E1,1.63E2,1.52E2,2.42E2,2.24E2,1.47E2,2.1E1,1.3E1,4E0,1.5E2,1.3E1,4.9E1,1.03E2,2.28E2,1.4E1,9.5E1,1.29E2,3.8E1,1.09E2,1E0,1.2E1,3E0,1E0],"tree_param":{"num_deleted":"0","num_feature":"275","num_nodes":"29","size_leaf_vector":"1"}},{"base_weights":[7.2764766E-1,-1.4437672E2,2.4377145E2,-2.5950284E2,1.8185482E1,1.6785968E2,7.096057E2,-3.2080777E2,-1.8690562E2,1.8695891E2,-7.644664E1,2.7254938E2,-4.6934708E1,6.430576E2,9.293589E1,-1.6457447E1,1.8780697E1,-1.9087814E0,-1.1147666E1,5.1059227E0,1.3487244E1,-5.7514625E0,3.9233162E0,1.1441457E1,3.247629E1,-4.1120043E0,3.6553783E1,2.6060455E1,4.220059E1],"categories":[],"categories_nodes":[],"categories_segments":[],"categories_sizes":[],"default_left":[0,0,0,0,0,0,0,0,0,0,0,0,0,0,0,0,0,0,0,0,0,0,0,0,0,0,0,0,0],"id":6,"left_children":[1,3,5,7,9,11,13,15,17,19,21,23,25,27,-1,-1,-1,-1,-1,-1,-1,-1,-1,-1,-1,-1,-1,-1,-1],"loss_changes":[3.410288E7,1.1334385E7,1.2723916E7,1.547746E6,4.0239498E6,7.011022E6,3.264164E6,1.174234E6,8.723285E5,6.21863E5,9.6978994E5,3.37856E6,2.8455265E6,9.67614E5,0E0,0E0,0E0,0E0,0E0,0E0,0E0,0E0,0E0,0E0,0E0,0E0,0E0,0E0,0E0],"parents":[2147483647,0,0,1,1,2,2,3,3,4,4,5,5,6,6,7,7,8,8,9,9,10,10,11,11,12,12,13,13],"right_children":[2,4,6,8,10,12,14,16,18,20,22,24,26,28,-1,-1,-1,-1,-1,-1,-1,-1,-1,-1,-1,-1,-1,-1,-1],"split_conditions":[2.6E0,1.8E2,3.4E0,2.2E0,1.44E0,1E0,1E0,1E0,1E0,1E0,1E0,1E0,1E0,1E0,9.293589E1,-1.6457447E1,1.8780697E1,-1.9087814E0,-1.1147666E1,5.1059227E0,1.3487244E1,-5.7514625E0,3.9233162E0,1.1441457E1,3.247629E1,-4.1120043E0,3.6553783E1,2.6060455E1,4.220059E1],"split_indices":[3,4,1,3,1,28,21,183,28,2,100,30,183,11,0,0,0,0,0,0,0,0,0,0,0,0,0,0,0],"split_type":[0,0,0,0,0,0,0,0,0,0,0,0,0,0,0,0,0,0,0,0,0,0,0,0,0,0,0,0,0],"sum_hessian":[9.66E2,6.05E2,3.61E2,3.54E2,2.51E2,3.11E2,5E1,1.91E2,1.63E2,9E1,1.61E2,2.09E2,1.02E2,4.8E1,2E0,1.89E2,2E0,3.2E1,1.31E2,4.5E1,4.5E1,1.29E2,3.2E1,1.88E2,2.1E1,9.8E1,4E0,3.1E1,1.7E1],"tree_param":{"num_deleted":"0","num_feature":"275","num_nodes":"29","size_leaf_vector":"1"}},{"base_weights":[8.1727684E-1,-9.804813E1,4.173289E2,-2.7543362E2,2.2025072E1,3.6150482E2,1.0632024E3,-3.435084E2,-2.0154549E2,1.6656326E2,-3.9575207E1,3.0985315E2,7.803037E2,7.9843066E2,1.5628696E3,-1.8175558E1,-1.2119055E1,3.6213288E0,-1.1475044E1,7.1436462E0,2.2540627E1,-3.200002E0,2.4493559E1,1.7123741E1,2.3275514E0,4.0343136E1,1.0517338E1,3.1854618E1,5.15047E1,8.968795E1,2.5158566E1],"categories":[],"categories_nodes":[],"categories_segments":[],"categories_sizes":[],"default_left":[0,0,0,0,0,0,0,0,0,0,0,0,0,0,0,0,0,0,0,0,0,0,0,0,0,0,0,0,0,0,0],"id":7,"left_children":[1,3,5,7,9,11,13,15,17,19,21,23,25,27,29,-1,-1,-1,-1,-1,-1,-1,-1,-1,-1,-1,-1,-1,-1,-1,-1],"loss_changes":[3.9819572E7,1.6648392E7,6.496078E6,1.552324E6,4.1568215E6,3.58894E6,1.294397E6,2.86676E5,1.176308E6,9.0718325E5,4.2507875E6,1.310495E6,1.95184E5,6.4317E4,6.49745E5,0E0,0E0,0E0,0E0,0E0,0E0,0E0,0E0,0E0,0E0,0E0,0E0,0E0,0E0,0E0,0E0],"parents":[2147483647,0,0,1,1,2,2,3,3,4,4,5,5,6,6,7,7,8,8,9,9,10,10,11,11,12,12,13,13,14,14],"right_children":[2,4,6,8,10,12,14,16,18,20,22,24,26,28,30,-1,-1,-1,-1,-1,-1,-1,-1,-1,-1,-1,-1,-1,-1,-1,-1],"split_conditions":[1.6E1,8E0,2.9E0,2.3E0,1.55E0,4.36E0,2.4E1,1.28E2,1.49E0,1E0,1E0,1E0,5.8E0,1E0,3.52E0,-1.8175558E1,-1.2119055E1,3.6213288E0,-1.1475044E1,7.1436462E0,2.2540627E1,-3.200002E0,2.4493559E1,1.7123741E1,2.3275514E0,4.0343136E1,1.0517338E1,3.1854618E1,5.15047E1,8.968795E1,2.5158566E1],"split_indices":[0,0,3,3,1,1,0,4,1,178,30,263,1,30,1,0,0,0,0,0,0,0,0,0,0,0,0,0,0,0,0],"split_type":[0,0,0,0,0,0,0,0,0,0,0,0,0,0,0,0,0,0,0,0,0,0,0,0,0,0,0,0,0,0,0],"sum_hessian":[9.66E2,7.81E2,1.85E2,3.15E2,4.66E2,1.71E2,1.4E1,1.63E2,1.52E2,1.39E2,3.27E2,1.53E2,1.8E1,1E1,4E0,1.35E2,2.8E1,1.4E1,1.38E2,1.29E2,1E1,3.13E2,1.4E1,1.36E2,1.7E1,1.7E1,1E0,7E0,3E0,3E0,1E0],"tree_param":{"num_deleted":"0","num_feature":"275","num_nodes":"31","size_leaf_vector":"1"}},{"base_weights":[9.219678E-1,-1.3148386E2,2.2269586E2,-2.3596257E2,1.6044777E1,1.5326222E2,6.4877966E2,-3.194266E2,-1.9147945E2,1.4917702E2,-8.305376E1,2.4885846E2,-4.2874786E1,5.8725415E2,8.5630936E1,-1.739539E1,-7.4956636E0,-1.8420712E0,-1.1079841E1,8.676005E0,-5.553686E0,-4.845124E0,1.0920961E1,3.9419086E0,1.5841517E1,-3.685038E0,4.197943E1,3.1062073E1,3.0762687E0],"categories":[],"categories_nodes":[],"categories_segments":[],"categories_sizes":[],"default_left":[0,0,0,0,0,0,0,0,0,0,0,0,0,0,0,0,0,0,0,0,0,0,0,0,0,0,0,0,0],"id":8,"left_children":[1,3,5,7,9,11,13,15,17,19,21,23,25,27,-1,-1,-1,-1,-1,-1,-1,-1,-1,-1,-1,-1,-1,-1,-1],"loss_changes":[2.8395094E7,9.334829E6,1.0645098E7,1.285586E6,3.324287E6,5.845948E6,2.80252E6,5.65345E5,1.078737E6,6.90682E5,6.138723E5,2.408618E6,2.8192258E6,8.4749E5,0E0,0E0,0E0,0E0,0E0,0E0,0E0,0E0,0E0,0E0,0E0,0E0,0E0,0E0,0E0],"parents":[2147483647,0,0,1,1,2,2,3,3,4,4,5,5,6,6,7,7,8,8,9,9,10,10,11,11,12,12,13,13],"right_children":[2,4,6,8,10,12,14,16,18,20,22,24,26,28,-1,-1,-1,-1,-1,-1,-1,-1,-1,-1,-1,-1,-1,-1,-1],"split_conditions":[2.6E0,1.8E2,3.4E0,1.8E0,1.55E0,1E0,1E0,1E0,1E0,1E0,1E0,1.8E2,1E0,5.8E0,8.5630936E1,-1.739539E1,-7.4956636E0,-1.8420712E0,-1.1079841E1,8.676005E0,-5.553686E0,-4.845124E0,1.0920961E1,3.9419086E0,1.5841517E1,-3.685038E0,4.197943E1,3.1062073E1,3.0762687E0],"split_indices":[3,4,1,3,1,28,21,246,28,9,168,4,157,1,0,0,0,0,0,0,0,0,0,0,0,0,0,0,0],"split_type":[0,0,0,0,0,0,0,0,0,0,0,0,0,0,0,0,0,0,0,0,0,0,0,0,0,0,0,0,0],"sum_hessian":[9.66E2,6.05E2,3.61E2,3.54E2,2.51E2,3.11E2,5E1,1.22E2,2.32E2,1.07E2,1.44E2,2.09E2,1.02E2,4.8E1,2E0,1.04E2,1.8E1,3.8E1,1.94E2,9.8E1,9E0,1.38E2,6E0,6E1,1.49E2,9.9E1,3E0,4.5E1,3E0],"tree_param":{"num_deleted":"0","num_feature":"275","num_nodes":"29","size_leaf_vector":"1"}},{"base_weights":[9.530782E-1,-8.949072E1,3.8198462E2,-2.5129259E2,2.0033901E1,3.3013638E2,9.820522E2,-3.1245892E2,-1.8489035E2,1.0365651E2,-7.190203E1,2.8280295E2,7.139533E2,7.3765424E2,1.4431971E3,-1.6248577E1,-8.069695E0,7.661081E0,-1.0206977E1,1.8840551E0,1.1090996E1,-4.5934296E0,1.6780357E1,2.260118E1,1.1451657E1,3.687489E1,1.0064218E1,4.034602E1,2.654177E0,8.2797874E1,2.3284546E1],"categories":[],"categories_nodes":[],"categories_segments":[],"categories_sizes":[],"default_left":[0,0,0,0,0,0,0,0,0,0,0,0,0,0,0,0,0,0,0,0,0,0,0,0,0,0,0,0,0,0,0],"id":9,"left_children":[1,3,5,7,9,11,13,15,17,19,21,23,25,27,29,-1,-1,-1,-1,-1,-1,-1,-1,-1,-1,-1,-1,-1,-1,-1,-1],"loss_changes":[3.3324558E7,1.3851704E7,5.609252E6,1.252546E6,3.5901425E6,3.01475E6,1.101902E6,2.82825E5,1.008167E6,1.9019132E6,1.8258001E6,1.344927E6,1.49079E5,4.76468E5,5.50303E5,0E0,0E0,0E0,0E0,0E0,0E0,0E0,0E0,0E0,0E0,0E0,0E0,0E0,0E0,0E0,0E0],"parents":[2147483647,0,0,1,1,2,2,3,3,4,4,5,5,6,6,7,7,8,8,9,9,10,10,11,11,12,12,13,13,14,14],"right_children":[2,4,6,8,10,12,14,16,18,20,22,24,26,28,30,-1,-1,-1,-1,-1,-1,-1,-1,-1,-1,-1,-1,-1,-1,-1,-1],"split_conditions":[1.6E1,8E0,2.9E0,2.3E0,1E0,4.36E0,2.4E1,1E0,1.29E0,2.6E0,1E0,1E0,5.8E0,1E0,3.52E0,-1.6248577E1,-8.069695E0,7.661081E0,-1.0206977E1,1.8840551E0,1.1090996E1,-4.5934296E0,1.6780357E1,2.260118E1,1.1451657E1,3.687489E1,1.0064218E1,4.034602E1,2.654177E0,8.2797874E1,2.3284546E1],"split_indices":[0,0,3,3,44,1,0,246,1,3,30,172,1,90,1,0,0,0,0,0,0,0,0,0,0,0,0,0,0,0,0],"split_type":[0,0,0,0,0,0,0,0,0,0,0,0,0,0,0,0,0,0,0,0,0,0,0,0,0,0,0,0,0,0,0],"sum_hessian":[9.66E2,7.81E2,1.85E2,3.15E2,4.66E2,1.71E2,1.4E1,1.63E2,1.52E2,2.44E2,2.22E2,1.53E2,1.8E1,1E1,4E0,1.5E2,1.3E1,8E0,1.44E2,1.57E2,8.7E1,2.12E2,1E1,3.6E1,1.17E2,1.7E1,1E0,9E0,1E0,3E0,1E0],"tree_param":{"num_deleted":"0","num_feature":"275","num_nodes":"31","size_leaf_vector":"1"}},{"base_weights":[1.0235757E0,1.6557169E2,-1.4611986E2,1.1458178E2,5.9333636E2,-2.3384239E2,-5.169522E1,-5.103892E1,2.0009865E2,5.0194604E2,1.1452473E3,-2.4399593E2,8.790474E2,-6.626364E1,3.6011847E2,8.491973E-1,-1.6419317E1,8.804113E0,2.939888E1,2.6297367E1,6.3679326E-1,7.889378E1,3.8882427E1,-1.3642417E1,-9.474753E0,1.982834E1,5.342561E1,7.9134965E0,-4.358905E0,-2.9477928E0,2.0996271E1],"categories":[],"categories_nodes":[],"categories_segments":[],"categories_sizes":[],"default_left":[0,0,0,0,0,0,0,0,0,0,0,0,0,0,0,0,0,0,0,0,0,0,0,0,0,0,0,0,0,0,0],"id":10,"left_children":[1,3,5,7,9,11,13,15,17,19,21,23,25,27,29,-1,-1,-1,-1,-1,-1,-1,-1,-1,-1,-1,-1,-1,-1,-1,-1],"loss_changes":[2.3413162E7,9.92304E6,4.222513E6,5.790841E6,2.15888E6,3.096029E6,1.4908019E6,2.634591E6,2.458749E6,4.95672E5,4.20202E5,3.86925E5,1.6664625E4,1.1268936E6,2.25419E5,0E0,0E0,0E0,0E0,0E0,0E0,0E0,0E0,0E0,0E0,0E0,0E0,0E0,0E0,0E0,0E0],"parents":[2147483647,0,0,1,1,2,2,3,3,4,4,5,5,6,6,7,7,8,8,9,9,10,10,11,11,12,12,13,13,14,14],"right_children":[2,4,6,8,10,12,14,16,18,20,22,24,26,28,30,-1,-1,-1,-1,-1,-1,-1,-1,-1,-1,-1,-1,-1,-1,-1,-1],"split_conditions":[1E0,3.4E0,1.28E2,1.8E2,1E0,1E0,1E0,1E0,1E0,1E0,3.52E0,1E0,2.07E0,1.44E0,1E0,8.491973E-1,-1.6419317E1,8.804113E0,2.939888E1,2.6297367E1,6.3679326E-1,7.889378E1,3.8882427E1,-1.3642417E1,-9.474753E0,1.982834E1,5.342561E1,7.9134965E0,-4.358905E0,-2.9477928E0,2.0996271E1],"split_indices":[28,1,4,4,183,183,259,32,30,2,1,172,1,1,166,0,0,0,0,0,0,0,0,0,0,0,0,0,0,0,0],"split_type":[0,0,0,0,0,0,0,0,0,0,0,0,0,0,0,0,0,0,0,0,0,0,0,0,0,0,0,0,0,0,0],"sum_hessian":[9.66E2,4.56E2,5.1E2,4.08E2,4.8E1,2.64E2,2.46E2,1.39E2,2.69E2,4.2E1,6E0,2.62E2,2E0,2.38E2,8E0,1.12E2,2.7E1,2.54E2,1.5E1,4E1,2E0,2E0,4E0,1.7E2,9.2E1,1E0,1E0,2E1,2.18E2,1E0,7E0],"tree_param":{"num_deleted":"0","num_feature":"275","num_nodes":"31","size_leaf_vector":"1"}},{"base_weights":[1.096067E0,-8.185862E1,3.5057608E2,-2.2933345E2,1.7968254E1,3.0245245E2,9.0767346E2,-2.8547858E2,-1.6838658E2,-1.2908136E2,6.0858295E1,2.5164215E2,6.0217883E2,1.1493945E3,5.217557E2,-1.4840934E1,-7.4242287E0,8.1404656E-1,-9.979033E0,-7.996784E0,6.5036445E0,8.248112E0,5.352172E-1,2.134745E1,9.550511E0,2.3714066E1,3.3057125E1,6.60195E1,2.3746363E1,3.0211317E1,2.272233E0],"categories":[],"categories_nodes":[],"categories_segments":[],"categories_sizes":[],"default_left":[0,0,0,0,0,0,0,0,0,0,0,0,0,0,0,0,0,0,0,0,0,0,0,0,0,0,0,0,0,0,0],"id":11,"left_children":[1,3,5,7,9,11,13,15,17,19,21,23,25,27,29,-1,-1,-1,-1,-1,-1,-1,-1,-1,-1,-1,-1,-1,-1,-1,-1],"loss_changes":[2.8034154E7,1.1507265E7,4.835906E6,1.055564E6,2.9461268E6,2.536039E6,1.052773E6,2.31965E5,8.80106E5,8.539826E5,1.8865895E6,1.52703E6,2.7979E4,6.66768E5,2.4160162E5,0E0,0E0,0E0,0E0,0E0,0E0,0E0,0E0,0E0,0E0,0E0,0E0,0E0,0E0,0E0,0E0],"parents":[2147483647,0,0,1,1,2,2,3,3,4,4,5,5,6,6,7,7,8,8,9,9,10,10,11,11,12,12,13,13,14,14],"right_children":[2,4,6,8,10,12,14,16,18,20,22,24,26,28,30,-1,-1,-1,-1,-1,-1,-1,-1,-1,-1,-1,-1,-1,-1,-1,-1],"split_conditions":[1.6E1,8E0,2.9E0,2.3E0,8E0,1E0,1E0,1E0,1.55E0,2.9E0,1.49E0,1E0,2.99E0,1E0,1E0,-1.4840934E1,-7.4242287E0,8.1404656E-1,-9.979033E0,-7.996784E0,6.5036445E0,8.248112E0,5.352172E-1,2.134745E1,9.550511E0,2.3714066E1,3.3057125E1,6.60195E1,2.3746363E1,3.0211317E1,2.272233E0],"split_indices":[0,0,3,3,4,133,5,246,1,1,1,172,1,261,9,0,0,0,0,0,0,0,0,0,0,0,0,0,0,0,0],"split_type":[0,0,0,0,0,0,0,0,0,0,0,0,0,0,0,0,0,0,0,0,0,0,0,0,0,0,0,0,0,0,0],"sum_hessian":[9.66E2,7.81E2,1.85E2,3.15E2,4.66E2,1.71E2,1.4E1,1.63E2,1.52E2,1.05E2,3.61E2,1.47E2,2.4E1,8E0,6E0,1.5E2,1.3E1,2.2E1,1.3E2,9.4E1,1.1E1,1.17E2,2.44E2,3.7E1,1.1E2,9E0,1.5E1,6E0,2E0,5E0,1E0],"tree_param":{"num_deleted":"0","num_feature":"275","num_nodes":"31","size_leaf_vector":"1"}},{"base_weights":[1.1373657E0,-7.778114E1,3.3361307E2,-2.179166E2,1.7077652E1,2.8758542E2,8.6650525E2,-2.7127274E2,-1.5999733E2,9.0799355E1,-6.3971767E1,2.4555156E2,6.285802E2,6.3079065E2,1.3202277E3,-1.4372817E1,-9.478524E0,7.0040393E0,-8.854768E0,1.476911E0,1.0027528E1,-4.092509E0,1.50449705E1,2.0017157E1,9.821124E0,3.2493484E1,8.533813E0,3.451267E1,2.1964927E0,2.6761307E1,7.340265E1],"categories":[],"categories_nodes":[],"categories_segments":[],"categories_sizes":[],"default_left":[0,0,0,0,0,0,0,0,0,0,0,0,0,0,0,0,0,0,0,0,0,0,0,0,0,0,0,0,0,0,0],"id":12,"left_children":[1,3,5,7,9,11,13,15,17,19,21,23,25,27,29,-1,-1,-1,-1,-1,-1,-1,-1,-1,-1,-1,-1,-1,-1,-1,-1],"loss_changes":[2.5372472E7,1.0390404E7,4.425304E6,9.53303E5,2.790289E6,2.380992E6,1.134367E6,1.88939E5,7.94842E5,1.6409296E6,1.4637519E6,1.128012E6,1.248895E5,3.5125E5,1.29324E5,0E0,0E0,0E0,0E0,0E0,0E0,0E0,0E0,0E0,0E0,0E0,0E0,0E0,0E0,0E0,0E0],"parents":[2147483647,0,0,1,1,2,2,3,3,4,4,5,5,6,6,7,7,8,8,9,9,10,10,11,11,12,12,13,13,14,14],"right_children":[2,4,6,8,10,12,14,16,18,20,22,24,26,28,30,-1,-1,-1,-1,-1,-1,-1,-1,-1,-1,-1,-1,-1,-1,-1,-1],"split_conditions":[1.6E1,8E0,2.9E0,2.3E0,1E0,4.36E0,1E0,1.28E2,1.29E0,2.6E0,1E0,1E0,5.8E0,3E0,2.4E1,-1.4372817E1,-9.478524E0,7.0040393E0,-8.854768E0,1.476911E0,1.0027528E1,-4.092509E0,1.50449705E1,2.0017157E1,9.821124E0,3.2493484E1,8.533813E0,3.451267E1,2.1964927E0,2.6761307E1,7.340265E1],"split_indices":[0,0,3,3,44,1,183,4,1,3,30,172,1,3,0,0,0,0,0,0,0,0,0,0,0,0,0,0,0,0,0],"split_type":[0,0,0,0,0,0,0,0,0,0,0,0,0,0,0,0,0,0,0,0,0,0,0,0,0,0,0,0,0,0,0],"sum_hessian":[9.66E2,7.81E2,1.85E2,3.15E2,4.66E2,1.71E2,1.4E1,1.63E2,1.52E2,2.44E2,2.22E2,1.53E2,1.8E1,1E1,4E0,1.35E2,2.8E1,8E0,1.44E2,1.57E2,8.7E1,2.12E2,1E1,3.6E1,1.17E2,1.7E1,1E0,9E0,1E0,1E0,3E0],"tree_param":{"num_deleted":"0","num_feature":"275","num_nodes":"31","size_leaf_vector":"1"}},{"base_weights":[1.1862926E0,-7.389416E1,3.1749237E2,-2.070615E2,1.624784E1,2.6857718E2,7.794045E2,-2.1296352E2,8.989347E1,-1.2177258E2,5.6505188E1,2.3133618E2,2.5891092E1,1.141241E3,5.4100104E2,-9.886469E0,-1.4645337E1,-9.569877E-1,9.304238E0,-7.1715674E0,1.4253123E1,2.2746067E0,2.3108675E1,1.011856E1,3.2071976E1,1.7788574E1,6.258554E1,1.0554701E1,3.8926888E1],"categories":[],"categories_nodes":[],"categories_segments":[],"categories_sizes":[],"default_left":[0,0,0,0,0,0,0,0,0,0,0,0,0,0,0,0,0,0,0,0,0,0,0,0,0,0,0,0,0],"id":13,"left_children":[1,3,5,7,9,11,13,15,17,19,21,23,-1,25,27,-1,-1,-1,-1,-1,-1,-1,-1,-1,-1,-1,-1,-1,-1],"loss_changes":[2.296456E7,9.382784E6,4.086618E6,5.62529E5,2.595471E6,1.504141E6,1.200898E6,3.47971E5,6.995311E4,9.500615E5,1.6045418E6,1.6871945E6,0E0,3.41347E5,8.190255E5,0E0,0E0,0E0,0E0,0E0,0E0,0E0,0E0,0E0,0E0,0E0,0E0,0E0,0E0],"parents":[2147483647,0,0,1,1,2,2,3,3,4,4,5,5,6,6,7,7,8,8,9,9,10,10,11,11,13,13,14,14],"right_children":[2,4,6,8,10,12,14,16,18,20,22,24,-1,26,28,-1,-1,-1,-1,-1,-1,-1,-1,-1,-1,-1,-1,-1,-1],"split_conditions":[1.6E1,8E0,3.2E1,1E0,8E0,1E0,8E0,1.6E1,1E0,1E0,1E0,1E0,2.5891092E1,2.07E0,5.12E2,-9.886469E0,-1.4645337E1,-9.569877E-1,9.304238E0,-7.1715674E0,1.4253123E1,2.2746067E0,2.3108675E1,1.011856E1,3.2071976E1,1.7788574E1,6.258554E1,1.0554701E1,3.8926888E1],"split_indices":[0,0,0,35,4,133,4,7,14,30,30,30,0,1,4,0,0,0,0,0,0,0,0,0,0,0,0,0,0],"split_type":[0,0,0,0,0,0,0,0,0,0,0,0,0,0,0,0,0,0,0,0,0,0,0,0,0,0,0,0,0],"sum_hessian":[9.66E2,7.81E2,1.85E2,3.15E2,4.66E2,1.68E2,1.7E1,3.09E2,6E0,1.05E2,3.61E2,1.47E2,2.1E1,6E0,1.1E1,2.61E2,4.8E1,3E0,3E0,1E2,5E0,3.52E2,9E0,1.38E2,9E0,1E0,5E0,5E0,6E0],"tree_param":{"num_deleted":"0","num_feature":"275","num_nodes":"29","size_leaf_vector":"1"}},{"base_weights":[1.2378076E0,-7.0189026E1,3.0215128E2,-1.9673405E2,1.5470254E1,2.5535036E2,7.441444E2,-2.0821667E2,-3.487372E1,-1.1565039E2,5.3715046E1,2.1991241E2,2.4626642E1,1.0903616E3,5.161024E2,-1.1392323E1,-5.0537286E0,-5.4807687E0,3.2653012E0,-6.814773E0,1.3605254E1,1.9121708E0,1.6204153E1,9.61446E0,3.0552774E1,5.974074E1,1.7195623E1,1.0074943E1,3.713026E1],"categories":[],"categories_nodes":[],"categories_segments":[],"categories_sizes":[],"default_left":[0,0,0,0,0,0,0,0,0,0,0,0,0,0,0,0,0,0,0,0,0,0,0,0,0,0,0,0,0],"id":14,"left_children":[1,3,5,7,9,11,13,15,17,19,21,23,-1,25,27,-1,-1,-1,-1,-1,-1,-1,-1,-1,-1,-1,-1,-1,-1],"loss_changes":[2.0783878E7,8.472792E6,3.742186E6,5.82751E5,2.3424552E6,1.36213E6,1.100292E6,6.0787E5,1.6456267E5,8.6309625E5,1.50597E6,1.534933E6,0E0,3.01343E5,7.44657E5,0E0,0E0,0E0,0E0,0E0,0E0,0E0,0E0,0E0,0E0,0E0,0E0,0E0,0E0],"parents":[2147483647,0,0,1,1,2,2,3,3,4,4,5,5,6,6,7,7,8,8,9,9,10,10,11,11,13,13,14,14],"right_children":[2,4,6,8,10,12,14,16,18,20,22,24,-1,26,28,-1,-1,-1,-1,-1,-1,-1,-1,-1,-1,-1,-1,-1,-1],"split_conditions":[1.6E1,8E0,3.2E1,1E0,8E0,1E0,8E0,1E0,1E0,1E0,1E0,1E0,2.4626642E1,1E0,5.12E2,-1.1392323E1,-5.0537286E0,-5.4807687E0,3.2653012E0,-6.814773E0,1.3605254E1,1.9121708E0,1.6204153E1,9.61446E0,3.0552774E1,5.974074E1,1.7195623E1,1.0074943E1,3.713026E1],"split_indices":[0,0,0,234,4,133,4,239,14,30,168,30,0,128,4,0,0,0,0,0,0,0,0,0,0,0,0,0,0],"split_type":[0,0,0,0,0,0,0,0,0,0,0,0,0,0,0,0,0,0,0,0,0,0,0,0,0,0,0,0,0],"sum_hessian":[9.66E2,7.81E2,1.85E2,3.15E2,4.66E2,1.68E2,1.7E1,2.94E2,2.1E1,1.05E2,3.61E2,1.47E2,2.1E1,6E0,1.1E1,2.48E2,4.6E1,1.2E1,9E0,1E2,5E0,3.42E2,1.9E1,1.38E2,9E0,5E0,1E0,5E0,6E0],"tree_param":{"num_deleted":"0","num_feature":"275","num_nodes":"29","size_leaf_vector":"1"}},{"base_weights":[1.2768936E0,-6.6675575E1,2.87553E2,-1.8692693E2,1.47234335E1,2.4277513E2,7.1048413E2,-2.0684705E2,-1.2941406E2,1.3183429E2,-2.9755466E1,2.0905296E2,2.3423948E1,-8.10858E0,7.682866E2,-1.0597401E1,-6.2009305E-1,-7.7024994E0,-1.310106E0,6.978237E0,-1.4284671E1,-2.4072978E0,1.9141851E1,1.8820448E1,7.4628158E0,3.2300194E1,6.6193474E1],"categories":[],"categories_nodes":[],"categories_segments":[],"categories_sizes":[],"default_left":[0,0,0,0,0,0,0,0,0,0,0,0,0,0,0,0,0,0,0,0,0,0,0,0,0,0,0],"id":15,"left_children":[1,3,5,7,9,11,13,15,17,19,21,23,-1,-1,25,-1,-1,-1,-1,-1,-1,-1,-1,-1,-1,-1,-1],"loss_changes":[1.8811074E7,7.650964E6,3.426748E6,3.48073E5,2.4319422E6,1.233522E6,9.45026E5,2.30285E5,2.0775638E5,4.3469275E5,2.5776785E6,1.44799E6,0E0,0E0,6.93368E5,0E0,0E0,0E0,0E0,0E0,0E0,0E0,0E0,0E0,0E0,0E0,0E0],"parents":[2147483647,0,0,1,1,2,2,3,3,4,4,5,5,6,6,7,7,8,8,9,9,10,10,11,11,14,14],"right_children":[2,4,6,8,10,12,14,16,18,20,22,24,-1,-1,26,-1,-1,-1,-1,-1,-1,-1,-1,-1,-1,-1,-1],"split_conditions":[1.6E1,8E0,3.2E1,1E0,1.49E0,1E0,1.41E0,1E0,1E0,1E0,1E0,1E0,2.3423948E1,-8.10858E0,1E0,-1.0597401E1,-6.2009305E-1,-7.7024994E0,-1.310106E0,6.978237E0,-1.4284671E1,-2.4072978E0,1.9141851E1,1.8820448E1,7.4628158E0,3.2300194E1,6.6193474E1],"split_indices":[0,0,0,14,1,133,1,168,100,220,30,172,0,0,21,0,0,0,0,0,0,0,0,0,0,0,0],"split_type":[0,0,0,0,0,0,0,0,0,0,0,0,0,0,0,0,0,0,0,0,0,0,0,0,0,0,0],"sum_hessian":[9.66E2,7.81E2,1.85E2,3.15E2,4.66E2,1.68E2,1.7E1,2.33E2,8.2E1,1.28E2,3.38E2,1.47E2,2.1E1,1E0,1.6E1,2.27E2,6E0,6.6E1,1.6E1,1.26E2,2E0,3.24E2,1.4E1,3.8E1,1.09E2,1.4E1,2E0],"tree_param":{"num_deleted":"0","num_feature":"275","num_nodes":"27","size_leaf_vector":"1"}},{"base_weights":[1.2799394E0,-6.3348705E1,2.7355295E2,-1.7761263E2,1.3997367E1,2.326348E2,7.480832E2,-2.2527757E2,-1.25927216E2,8.050505E1,-5.9117813E1,1.9604216E2,5.299674E2,9.6646533E2,4.0496173E2,-1.1786498E1,-5.0204577E0,1.8124249E0,-7.6703033E0,1.1506308E0,9.17657E0,-3.691017E0,1.2062419E1,1.6971874E1,7.533193E0,2.7383179E1,7.3428264E0,3.4385223E1,6.3322582E1,2.3597715E1,1.21675E0],"categories":[],"categories_nodes":[],"categories_segments":[],"categories_sizes":[],"default_left":[0,0,0,0,0,0,0,0,0,0,0,0,0,0,0,0,0,0,0,0,0,0,0,0,0,0,0,0,0,0,0],"id":16,"left_children":[1,3,5,7,9,11,13,15,17,19,21,23,25,27,29,-1,-1,-1,-1,-1,-1,-1,-1,-1,-1,-1,-1,-1,-1,-1,-1],"loss_changes":[1.7015812E7,6.908035E6,3.51482E6,7.63076E5,2.2708392E6,1.814005E6,8.90817E5,2.015615E5,6.823815E5,1.4461195E6,9.91496E5,9.73259E5,8.52085E4,2.75336E5,1.6000212E5,0E0,0E0,0E0,0E0,0E0,0E0,0E0,0E0,0E0,0E0,0E0,0E0,0E0,0E0,0E0,0E0],"parents":[2147483647,0,0,1,1,2,2,3,3,4,4,5,5,6,6,7,7,8,8,9,9,10,10,11,11,12,12,13,13,14,14],"right_children":[2,4,6,8,10,12,14,16,18,20,22,24,26,28,30,-1,-1,-1,-1,-1,-1,-1,-1,-1,-1,-1,-1,-1,-1,-1,-1],"split_conditions":[1.6E1,8E0,2.9E0,2.3E0,1E0,4.36E0,1E0,1E0,1.55E0,2.6E0,1E0,1E0,5.8E0,2.4E1,1E0,-1.1786498E1,-5.0204577E0,1.8124249E0,-7.6703033E0,1.1506308E0,9.17657E0,-3.691017E0,1.2062419E1,1.6971874E1,7.533193E0,2.7383179E1,7.3428264E0,3.4385223E1,6.3322582E1,2.3597715E1,1.21675E0],"split_indices":[0,0,3,3,44,1,5,246,1,3,30,172,1,0,206,0,0,0,0,0,0,0,0,0,0,0,0,0,0,0,0],"split_type":[0,0,0,0,0,0,0,0,0,0,0,0,0,0,0,0,0,0,0,0,0,0,0,0,0,0,0,0,0,0,0],"sum_hessian":[9.66E2,7.81E2,1.85E2,3.15E2,4.66E2,1.71E2,1.4E1,1.63E2,1.52E2,2.44E2,2.22E2,1.53E2,1.8E1,8E0,6E0,1.5E2,1.3E1,2.2E1,1.3E2,1.57E2,8.7E1,2.12E2,1E1,3.6E1,1.17E2,1.7E1,1E0,5E0,3E0,5E0,1E0],"tree_param":{"num_deleted":"0","num_feature":"275","num_nodes":"31","size_leaf_vector":"1"}},{"base_weights":[1.3079168E0,-6.0183804E1,2.603652E2,-1.6876793E2,1.3317549E1,2.2117572E2,7.14904E2,-2.140651E2,-1.1965008E2,7.6500916E1,-5.6143085E1,1.8027354E2,4.629098E2,5.1928186E2,1.0919219E3,-1.1199131E1,-4.7787323E0,-2.1250775E0,-7.798459E0,-5.2401465E-1,6.9398956E0,-7.4510064E0,-6.06237E-1,1.2646946E1,3.2168484E0,1.9096155E1,2.763526E1,2.094377E1,4.9104763E1,2.2367834E1,6.060876E1],"categories":[],"categories_nodes":[],"categories_segments":[],"categories_sizes":[],"default_left":[0,0,0,0,0,0,0,0,0,0,0,0,0,0,0,0,0,0,0,0,0,0,0,0,0,0,0,0,0,0,0],"id":17,"left_children":[1,3,5,7,9,11,13,15,17,19,21,23,25,27,29,-1,-1,-1,-1,-1,-1,-1,-1,-1,-1,-1,-1,-1,-1,-1,-1],"loss_changes":[1.5404063E7,6.2383375E6,3.225275E6,6.89149E5,2.0495024E6,1.653973E6,7.85911E5,1.814315E5,4.23985E5,1.3255918E6,9.087419E5,1.234488E6,7.2624E4,2.822415E5,7.7663E4,0E0,0E0,0E0,0E0,0E0,0E0,0E0,0E0,0E0,0E0,0E0,0E0,0E0,0E0,0E0,0E0],"parents":[2147483647,0,0,1,1,2,2,3,3,4,4,5,5,6,6,7,7,8,8,9,9,10,10,11,11,12,12,13,13,14,14],"right_children":[2,4,6,8,10,12,14,16,18,20,22,24,26,28,30,-1,-1,-1,-1,-1,-1,-1,-1,-1,-1,-1,-1,-1,-1,-1,-1],"split_conditions":[1.6E1,8E0,2.9E0,2.3E0,1E0,1E0,1E0,1E0,1E0,2.5E0,8E0,1E0,1E0,1E0,2.4E1,-1.1199131E1,-4.7787323E0,-2.1250775E0,-7.798459E0,-5.2401465E-1,6.9398956E0,-7.4510064E0,-6.06237E-1,1.2646946E1,3.2168484E0,1.9096155E1,2.763526E1,2.094377E1,4.9104763E1,2.2367834E1,6.060876E1],"split_indices":[0,0,3,3,44,133,183,246,44,3,4,44,11,14,0,0,0,0,0,0,0,0,0,0,0,0,0,0,0,0,0],"split_type":[0,0,0,0,0,0,0,0,0,0,0,0,0,0,0,0,0,0,0,0,0,0,0,0,0,0,0,0,0,0,0],"sum_hessian":[9.66E2,7.81E2,1.85E2,3.15E2,4.66E2,1.71E2,1.4E1,1.63E2,1.52E2,2.44E2,2.22E2,1.47E2,2.4E1,1E1,4E0,1.5E2,1.3E1,4.9E1,1.03E2,1.02E2,1.42E2,7.1E1,1.51E2,9E1,5.7E1,1.4E1,1E1,9E0,1E0,1E0,3E0],"tree_param":{"num_deleted":"0","num_feature":"275","num_nodes":"31","size_leaf_vector":"1"}},{"base_weights":[1.3398179E0,-5.7192234E1,2.4792812E2,-1.6037057E2,1.2649916E1,2.1029942E2,6.8443555E2,-2.034107E2,-1.1370011E2,1.1212917E2,-2.9743004E1,1.7657198E2,4.8446222E2,8.8686536E2,3.670707E2,-1.0641036E1,-4.5486445E0,4.1182656E0,-6.6908174E0,6.66156E0,-7.673436E0,-2.3698E0,1.764763E1,-4.9472114E-1,1.0390276E1,2.5035017E1,6.6764994E0,5.1349976E1,1.7257175E1,2.1560162E1,4.7806603E-1],"categories":[],"categories_nodes":[],"categories_segments":[],"categories_sizes":[],"default_left":[0,0,0,0,0,0,0,0,0,0,0,0,0,0,0,0,0,0,0,0,0,0,0,0,0,0,0,0,0,0,0],"id":18,"left_children":[1,3,5,7,9,11,13,15,17,19,21,23,25,27,29,-1,-1,-1,-1,-1,-1,-1,-1,-1,-1,-1,-1,-1,-1,-1,-1],"loss_changes":[1.3956893E7,5.632658E6,2.974907E6,6.22182E5,1.9689988E6,1.543057E6,7.68769E5,1.63309E5,6.06986E5,7.920729E5,2.220864E6,8.950125E5,7.19925E4,4.680355E5,1.4697038E5,0E0,0E0,0E0,0E0,0E0,0E0,0E0,0E0,0E0,0E0,0E0,0E0,0E0,0E0,0E0,0E0],"parents":[2147483647,0,0,1,1,2,2,3,3,4,4,5,5,6,6,7,7,8,8,9,9,10,10,11,11,12,12,13,13,14,14],"right_children":[2,4,6,8,10,12,14,16,18,20,22,24,26,28,30,-1,-1,-1,-1,-1,-1,-1,-1,-1,-1,-1,-1,-1,-1,-1,-1],"split_conditions":[1.6E1,8E0,2.9E0,2.3E0,1.55E0,4.36E0,1E0,1E0,1.49E0,1E0,1E0,2.2E0,5.8E0,1E0,1E0,-1.0641036E1,-4.5486445E0,4.1182656E0,-6.6908174E0,6.66156E0,-7.673436E0,-2.3698E0,1.764763E1,-4.9472114E-1,1.0390276E1,2.5035017E1,6.6764994E0,5.1349976E1,1.7257175E1,2.1560162E1,4.7806603E-1],"split_indices":[0,0,3,3,1,1,5,246,1,9,30,3,1,261,9,0,0,0,0,0,0,0,0,0,0,0,0,0,0,0,0],"split_type":[0,0,0,0,0,0,0,0,0,0,0,0,0,0,0,0,0,0,0,0,0,0,0,0,0,0,0,0,0,0,0],"sum_hessian":[9.66E2,7.81E2,1.85E2,3.15E2,4.66E2,1.71E2,1.4E1,1.63E2,1.52E2,1.39E2,3.27E2,1.53E2,1.8E1,8E0,6E0,1.5E2,1.3E1,1.4E1,1.38E2,1.29E2,1E1,3.13E2,1.4E1,2.2E1,1.31E2,1.7E1,1E0,6E0,2E0,5E0,1E0],"tree_param":{"num_deleted":"0","num_feature":"275","num_nodes":"31","size_leaf_vector":"1"}},{"base_weights":[1.3394382E0,-5.433486E1,2.358882E2,-1.5238022E2,1.203272E1,1.9990576E2,6.533395E2,-1.9328664E2,-1.0802357E2,-1.940081E0,3.0128232E2,1.619123E2,4.245623E2,8.465578E2,3.504124E2,-1.0110751E1,-4.3296356E0,7.1501384E0,-6.120802E0,5.1922393E0,-2.0772645E0,1.0854449E1,4.4886692E1,1.153707E1,2.6086662E0,1.7622171E1,2.519689E1,4.8979977E1,1.6566887E1,2.0580153E1,4.6212974E-1],"categories":[],"categories_nodes":[],"categories_segments":[],"categories_sizes":[],"default_left":[0,0,0,0,0,0,0,0,0,0,0,0,0,0,0,0,0,0,0,0,0,0,0,0,0,0,0,0,0,0,0],"id":19,"left_children":[1,3,5,7,9,11,13,15,17,19,21,23,25,27,29,-1,-1,-1,-1,-1,-1,-1,-1,-1,-1,-1,-1,-1,-1,-1,-1],"loss_changes":[1.2627292E7,5.0861635E6,2.721077E6,5.620255E5,1.8857112E6,1.429464E6,7.00378E5,1.469965E5,5.597184E5,1.8686381E6,9.8222675E5,1.1080828E6,5.1445E4,4.2035E5,1.337945E5,0E0,0E0,0E0,0E0,0E0,0E0,0E0,0E0,0E0,0E0,0E0,0E0,0E0,0E0,0E0,0E0],"parents":[2147483647,0,0,1,1,2,2,3,3,4,4,5,5,6,6,7,7,8,8,9,9,10,10,11,11,12,12,13,13,14,14],"right_children":[2,4,6,8,10,12,14,16,18,20,22,24,26,28,30,-1,-1,-1,-1,-1,-1,-1,-1,-1,-1,-1,-1,-1,-1,-1,-1],"split_conditions":[1.6E1,8E0,2.9E0,2.3E0,1E0,1E0,1E0,1E0,1.29E0,1.49E0,2.6E0,1E0,1E0,1E0,1E0,-1.0110751E1,-4.3296356E0,7.1501384E0,-6.120802E0,5.1922393E0,-2.0772645E0,1.0854449E1,4.4886692E1,1.153707E1,2.6086662E0,1.7622171E1,2.519689E1,4.8979977E1,1.6566887E1,2.0580153E1,4.6212974E-1],"split_indices":[0,0,3,3,168,133,5,246,1,1,1,44,11,261,9,0,0,0,0,0,0,0,0,0,0,0,0,0,0,0,0],"split_type":[0,0,0,0,0,0,0,0,0,0,0,0,0,0,0,0,0,0,0,0,0,0,0,0,0,0,0,0,0,0,0],"sum_hessian":[9.66E2,7.81E2,1.85E2,3.15E2,4.66E2,1.71E2,1.4E1,1.63E2,1.52E2,4.45E2,2.1E1,1.47E2,2.4E1,8E0,6E0,1.5E2,1.3E1,8E0,1.44E2,1.21E2,3.24E2,1.9E1,2E0,9E1,5.7E1,1.4E1,1E1,6E0,2E0,5E0,1E0],"tree_param":{"num_deleted":"0","num_feature":"275","num_nodes":"31","size_leaf_vector":"1"}},{"base_weights":[1.3702378E0,-5.1589046E1,2.2448073E2,-1.417818E2,1.5534869E1,1.9007655E2,6.2365826E2,-1.9321463E2,-9.204478E1,1.0965808E2,-2.4316847E1,1.4380582E2,3.5924496E2,8.0808563E2,3.3451038E2,-1.0101444E1,-1.030012E0,9.6998495E-1,-6.1502337E0,4.6815023E0,1.6992842E1,-1.906123E0,1.3179163E1,1.5976717E1,5.509039E0,4.057201E1,1.5331942E1,2.8263004E1,5.371139E1,1.964469E1,4.4672447E-1],"categories":[],"categories_nodes":[],"categories_segments":[],"categories_sizes":[],"default_left":[0,0,0,0,0,0,0,0,0,0,0,0,0,0,0,0,0,0,0,0,0,0,0,0,0,0,0,0,0,0,0],"id":20,"left_children":[1,3,5,7,9,11,13,15,17,19,21,23,25,27,29,-1,-1,-1,-1,-1,-1,-1,-1,-1,-1,-1,-1,-1,-1,-1,-1],"loss_changes":[1.1425733E7,4.732373E6,2.488269E6,8.44239E5,1.6836439E6,1.316594E6,6.38082E5,2.466785E5,5.894709E5,4.7665562E5,1.2590224E6,7.8304925E5,7.438615E5,2.457125E5,1.21798375E5,0E0,0E0,0E0,0E0,0E0,0E0,0E0,0E0,0E0,0E0,0E0,0E0,0E0,0E0,0E0,0E0],"parents":[2147483647,0,0,1,1,2,2,3,3,4,4,5,5,6,6,7,7,8,8,9,9,10,10,11,11,12,12,13,13,14,14],"right_children":[2,4,6,8,10,12,14,16,18,20,22,24,26,28,30,-1,-1,-1,-1,-1,-1,-1,-1,-1,-1,-1,-1,-1,-1,-1,-1],"split_conditions":[1.6E1,1.28E2,2.9E0,2.3E0,1.49E0,3.4E0,1E0,1E0,1E0,1E0,1E0,1.3E0,8E0,2.4E1,1E0,-1.0101444E1,-1.030012E0,9.6998495E-1,-6.1502337E0,4.6815023E0,1.6992842E1,-1.906123E0,1.3179163E1,1.5976717E1,5.509039E0,4.057201E1,1.5331942E1,2.8263004E1,5.371139E1,1.964469E1,4.4672447E-1],"split_indices":[0,4,3,3,1,1,5,8,44,178,168,1,4,0,90,0,0,0,0,0,0,0,0,0,0,0,0,0,0,0,0],"split_type":[0,0,0,0,0,0,0,0,0,0,0,0,0,0,0,0,0,0,0,0,0,0,0,0,0,0,0,0,0,0,0],"sum_hessian":[9.66E2,7.81E2,1.85E2,3.33E2,4.48E2,1.71E2,1.4E1,1.63E2,1.7E2,1.33E2,3.15E2,1.35E2,3.6E1,8E0,6E0,1.55E2,8E0,3.7E1,1.33E2,1.25E2,8E0,3.01E2,1.4E1,2.1E1,1.14E2,3E0,3.3E1,5E0,3E0,5E0,1E0],"tree_param":{"num_deleted":"0","num_feature":"275","num_nodes":"31","size_leaf_vector":"1"}},{"base_weights":[1.403168E0,-4.8998955E1,2.137404E2,-1.3906746E2,1.1968059E1,1.743667E2,5.2639795E2,-1.4388068E2,1.0081336E2,-9.2642564E-1,2.7887543E2,1.5374152E2,5.0496213E2,3.819652E2,8.0810187E2,-7.756103E0,-3.7597363E0,6.833509E-1,8.67789E0,-4.4899493E-1,1.6657255E1,1.8984526E1,3.2687333E0,9.206106E0,-6.8496484E-1,2.0598206E1,4.3181507E1,2.151991E1,-9.062677E0,5.1409466E1,2.3628561E1],"categories":[],"categories_nodes":[],"categories_segments":[],"categories_sizes":[],"default_left":[0,0,0,0,0,0,0,0,0,0,0,0,0,0,0,0,0,0,0,0,0,0,0,0,0,0,0,0,0,0,0],"id":21,"left_children":[1,3,5,7,9,11,13,15,17,19,21,23,25,27,29,-1,-1,-1,-1,-1,-1,-1,-1,-1,-1,-1,-1,-1,-1,-1,-1],"loss_changes":[1.0348959E7,4.292211E6,2.237701E6,3.715285E5,1.605651E6,1.0896595E6,6.797555E5,2.331405E5,4.0020156E4,1.2000849E6,4.5035675E5,7.973695E5,1.38984E5,4.3454225E5,2.37053E5,0E0,0E0,0E0,0E0,0E0,0E0,0E0,0E0,0E0,0E0,0E0,0E0,0E0,0E0,0E0,0E0],"parents":[2147483647,0,0,1,1,2,2,3,3,4,4,5,5,6,6,7,7,8,8,9,9,10,10,11,11,12,12,13,13,14,14],"right_children":[2,4,6,8,10,12,14,16,18,20,22,24,26,28,30,-1,-1,-1,-1,-1,-1,-1,-1,-1,-1,-1,-1,-1,-1,-1,-1],"split_conditions":[1.6E1,8E0,2.4E1,1E0,1E0,1E0,1E0,1E0,1E0,1E0,1E0,1E0,1E0,1E0,1E0,-7.756103E0,-3.7597363E0,6.833509E-1,8.67789E0,-4.4899493E-1,1.6657255E1,1.8984526E1,3.2687333E0,9.206106E0,-6.8496484E-1,2.0598206E1,4.3181507E1,2.151991E1,-9.062677E0,5.1409466E1,2.3628561E1],"split_indices":[0,0,0,35,168,30,183,239,14,178,28,28,272,37,11,0,0,0,0,0,0,0,0,0,0,0,0,0,0,0,0],"split_type":[0,0,0,0,0,0,0,0,0,0,0,0,0,0,0,0,0,0,0,0,0,0,0,0,0,0,0,0,0,0,0],"sum_hessian":[9.66E2,7.81E2,1.85E2,3.15E2,4.66E2,1.65E2,2E1,3.09E2,6E0,4.45E2,2.1E1,1.56E2,9E0,1.4E1,6E0,2.65E2,4.4E1,3E0,3E0,4.35E2,1E1,1.4E1,7E0,1.32E2,2.4E1,8E0,1E0,1.3E1,1E0,3E0,3E0],"tree_param":{"num_deleted":"0","num_feature":"275","num_nodes":"31","size_leaf_vector":"1"}},{"base_weights":[1.4344554E0,1.0225027E2,-8.87186E1,1.2121491E2,-1.9580212E2,-9.75346E1,2.980597E2,1.02719124E2,3.796518E2,-2.0821484E2,4.4378285E0,-9.958765E1,3.0863722E1,2.2733646E2,3.4688454E1,4.2217216E0,1.9751692E1,1.6278988E1,2.1792042E1,-1.0855014E1,6.121175E-1,-5.1585836E0,1.1552496E1,2.9899447E0,1.8710354E1],"categories":[],"categories_nodes":[],"categories_segments":[],"categories_sizes":[],"default_left":[0,0,0,0,0,0,0,0,0,0,0,0,0,0,0,0,0,0,0,0,0,0,0,0,0],"id":22,"left_children":[1,3,5,7,9,11,13,15,17,19,-1,21,-1,23,-1,-1,-1,-1,-1,-1,-1,-1,-1,-1,-1],"loss_changes":[8.788913E6,2.592214E6,1.755257E6,2.033508E6,1.06374375E5,7.63772E5,2.4297762E5,2.129294E6,1.564E4,5.3238625E4,0E0,6.026475E5,0E0,2.47178E5,0E0,0E0,0E0,0E0,0E0,0E0,0E0,0E0,0E0,0E0,0E0],"parents":[2147483647,0,0,1,1,2,2,3,3,4,4,5,5,6,6,7,7,8,8,9,9,11,11,13,13],"right_children":[2,4,6,8,10,12,14,16,18,20,-1,22,-1,24,-1,-1,-1,-1,-1,-1,-1,-1,-1,-1,-1],"split_conditions":[1E0,1E0,1E0,1E0,1E0,1E0,1E0,1E0,1E0,1E0,4.4378285E0,1E0,3.0863722E1,1E0,3.4688454E1,4.2217216E0,1.9751692E1,1.6278988E1,2.1792042E1,-1.0855014E1,6.121175E-1,-5.1585836E0,1.1552496E1,2.9899447E0,1.8710354E1],"split_indices":[28,32,259,133,8,273,162,30,11,270,0,237,0,11,0,0,0,0,0,0,0,0,0,0,0],"split_type":[0,0,0,0,0,0,0,0,0,0,0,0,0,0,0,0,0,0,0,0,0,0,0,0,0],"sum_hessian":[9.66E2,4.56E2,5.1E2,4.29E2,2.7E1,4.99E2,1.1E1,4.01E2,2.8E1,2.6E1,1E0,4.98E2,1E0,1E1,1E0,3.78E2,2.3E1,1.6E1,1.2E1,2.5E1,1E0,4.93E2,5E0,5E0,5E0],"tree_param":{"num_deleted":"0","num_feature":"275","num_nodes":"25","size_leaf_vector":"1"}},{"base_weights":[1.4402639E0,-7.3052345E1,1.2621081E2,-1.3926263E2,-1.6636791E1,1.0303152E2,5.3009814E2,-1.4701321E2,1.8323402E1,9.636647E1,-5.7715656E1,-1.4322336E2,1.3040356E2,8.194294E2,3.7115723E2,-7.47437E0,1.6913527E1,-2.6662953E0,8.377357E0,2.860679E0,1.4575409E1,-3.1246533E0,2.0479612E1,-3.4169888E0,-1.0700743E1,5.8934693E0,2.4026142E1,1.2844576E1,4.4917763E1,3.1928744E0,2.7408274E1],"categories":[],"categories_nodes":[],"categories_segments":[],"categories_sizes":[],"default_left":[0,0,0,0,0,0,0,0,0,0,0,0,0,0,0,0,0,0,0,0,0,0,0,0,0,0,0,0,0,0,0],"id":23,"left_children":[1,3,5,7,9,11,13,15,17,19,21,23,25,27,29,-1,-1,-1,-1,-1,-1,-1,-1,-1,-1,-1,-1,-1,-1,-1,-1],"loss_changes":[8.987728E6,2.2605598E6,3.3569905E6,3.415025E5,1.523051E6,2.3179595E6,7.4467E5,3.44063E5,1.4880628E5,6.601925E5,5.497195E5,1.7557581E5,1.325521E6,1.732025E5,7.168246E5,0E0,0E0,0E0,0E0,0E0,0E0,0E0,0E0,0E0,0E0,0E0,0E0,0E0,0E0,0E0,0E0],"parents":[2147483647,0,0,1,1,2,2,3,3,4,4,5,5,6,6,7,7,8,8,9,9,10,10,11,11,12,12,13,13,14,14],"right_children":[2,4,6,8,10,12,14,16,18,20,22,24,26,28,30,-1,-1,-1,-1,-1,-1,-1,-1,-1,-1,-1,-1,-1,-1,-1,-1],"split_conditions":[2.6E0,1.28E2,2.4E1,1E0,1.38E0,8E0,8E0,1E0,1.9E0,1E0,1E0,2.8E0,1E0,2.07E0,5.12E2,-7.47437E0,1.6913527E1,-2.6662953E0,8.377357E0,2.860679E0,1.4575409E1,-3.1246533E0,2.0479612E1,-3.4169888E0,-1.0700743E1,5.8934693E0,2.4026142E1,1.2844576E1,4.4917763E1,3.1928744E0,2.7408274E1],"split_indices":[3,4,0,29,1,0,4,183,3,14,178,3,168,1,4,0,0,0,0,0,0,0,0,0,0,0,0,0,0,0,0],"split_type":[0,0,0,0,0,0,0,0,0,0,0,0,0,0,0,0,0,0,0,0,0,0,0,0,0,0,0,0,0,0,0],"sum_hessian":[9.66E2,6.05E2,3.61E2,2.78E2,3.27E2,3.42E2,1.9E1,2.65E2,1.3E1,8.7E1,2.4E2,3.4E1,3.08E2,6E0,1.3E1,2.64E2,1E0,9E0,4E0,7.3E1,1.4E1,2.38E2,2E0,1.7E1,1.7E1,2.98E2,1E1,1E0,5E0,5E0,8E0],"tree_param":{"num_deleted":"0","num_feature":"275","num_nodes":"31","size_leaf_vector":"1"}},{"base_weights":[1.4479697E0,-4.3368813E1,1.902544E2,-1.2150169E2,9.519952E0,1.5951495E2,5.472673E2,-1.7072025E2,-9.399389E1,-3.1696018E1,7.550787E1,5.9265076E1,2.1600682E2,7.1571814E2,2.8488794E2,-9.234434E0,-3.0722353E0,-5.2817044E0,3.4991646E-1,-1.9184523E0,1.961132E1,2.80698E0,1.4698481E1,1.6879673E0,1.9212729E1,9.018245E0,2.313902E1,4.1470867E1,1.3847823E1,1.6892164E1,-2.1221112E-1],"categories":[],"categories_nodes":[],"categories_segments":[],"categories_sizes":[],"default_left":[0,0,0,0,0,0,0,0,0,0,0,0,0,0,0,0,0,0,0,0,0,0,0,0,0,0,0,0,0,0,0],"id":24,"left_children":[1,3,5,7,9,11,13,15,17,19,21,23,25,27,29,-1,-1,-1,-1,-1,-1,-1,-1,-1,-1,-1,-1,-1,-1,-1,-1],"loss_changes":[8.1823545E6,3.2300112E6,1.9920985E6,4.1913E5,1.2699629E6,9.648555E5,5.389215E5,1.6604675E5,2.39598E5,8.208177E5,7.512535E5,5.115823E5,9.21371E5,3.09182E5,1.00239E5,0E0,0E0,0E0,0E0,0E0,0E0,0E0,0E0,0E0,0E0,0E0,0E0,0E0,0E0,0E0,0E0],"parents":[2147483647,0,0,1,1,2,2,3,3,4,4,5,5,6,6,7,7,8,8,9,9,10,10,11,11,12,12,13,13,14,14],"right_children":[2,4,6,8,10,12,14,16,18,20,22,24,26,28,30,-1,-1,-1,-1,-1,-1,-1,-1,-1,-1,-1,-1,-1,-1,-1,-1],"split_conditions":[1.6E1,8E0,2.9E0,2E0,2.6E0,2.7E0,1E0,1E0,1E0,1E0,1E0,1E0,2.4E1,1E0,1E0,-9.234434E0,-3.0722353E0,-5.2817044E0,3.4991646E-1,-1.9184523E0,1.961132E1,2.80698E0,1.4698481E1,1.6879673E0,1.9212729E1,9.018245E0,2.313902E1,4.1470867E1,1.3847823E1,1.6892164E1,-2.1221112E-1],"split_indices":[0,0,3,3,3,3,5,246,234,222,30,178,0,261,90,0,0,0,0,0,0,0,0,0,0,0,0,0,0,0,0],"split_type":[0,0,0,0,0,0,0,0,0,0,0,0,0,0,0,0,0,0,0,0,0,0,0,0,0,0,0,0,0,0,0],"sum_hessian":[9.66E2,7.81E2,1.85E2,3.15E2,4.66E2,1.71E2,1.4E1,1.12E2,2.03E2,2.87E2,1.79E2,6.2E1,1.09E2,8E0,6E0,9.9E1,1.3E1,1.82E2,2.1E1,2.83E2,4E0,1.65E2,1.4E1,5.8E1,4E0,9.6E1,1.3E1,6E0,2E0,5E0,1E0],"tree_param":{"num_deleted":"0","num_feature":"275","num_nodes":"31","size_leaf_vector":"1"}},{"base_weights":[1.4495554E0,-4.1188885E1,1.8107877E2,-1.1545393E2,9.081674E0,1.5040283E2,4.7127048E2,-1.241726E2,6.6565523E0,-2.5188482E0,2.4924408E2,1.323675E2,4.4529077E2,3.8015622E2,4.7096233E1,-6.9149413E0,-2.3672829E0,-3.062871E0,4.7833347E0,4.306735E0,-1.785441E0,8.649378E0,3.970981E1,5.2157598E0,1.2710986E1,9.458049E0,3.0718527E1,-8.853424E0,2.1234566E1],"categories":[],"categories_nodes":[],"categories_segments":[],"categories_sizes":[],"default_left":[0,0,0,0,0,0,0,0,0,0,0,0,0,0,0,0,0,0,0,0,0,0,0,0,0,0,0,0,0],"id":25,"left_children":[1,3,5,7,9,11,13,15,17,19,21,23,25,27,-1,-1,-1,-1,-1,-1,-1,-1,-1,-1,-1,-1,-1,-1,-1],"loss_changes":[7.406259E6,2.9181335E6,1.615862E6,3.363075E5,1.2999872E6,8.6668025E5,5.714185E5,3.163395E5,1.3289834E5,1.312381E6,8.247641E5,5.31949E5,3.5330312E5,4.2224825E5,0E0,0E0,0E0,0E0,0E0,0E0,0E0,0E0,0E0,0E0,0E0,0E0,0E0,0E0,0E0],"parents":[2147483647,0,0,1,1,2,2,3,3,4,4,5,5,6,6,7,7,8,8,9,9,10,10,11,11,12,12,13,13],"right_children":[2,4,6,8,10,12,14,16,18,20,22,24,26,28,-1,-1,-1,-1,-1,-1,-1,-1,-1,-1,-1,-1,-1,-1,-1],"split_conditions":[1.6E1,8E0,3.2E1,1E0,1E0,1E0,1E0,1E0,1E0,1.49E0,2.6E0,3.4E0,2.31E0,1.41E0,4.7096233E1,-6.9149413E0,-2.3672829E0,-3.062871E0,4.7833347E0,4.306735E0,-1.785441E0,8.649378E0,3.970981E1,5.2157598E0,1.2710986E1,9.458049E0,3.0718527E1,-8.853424E0,2.1234566E1],"split_indices":[0,0,0,234,168,30,260,239,14,1,1,1,1,1,0,0,0,0,0,0,0,0,0,0,0,0,0,0,0],"split_type":[0,0,0,0,0,0,0,0,0,0,0,0,0,0,0,0,0,0,0,0,0,0,0,0,0,0,0,0,0],"sum_hessian":[9.66E2,7.81E2,1.85E2,3.15E2,4.66E2,1.68E2,1.7E1,2.94E2,2.1E1,4.45E2,2.1E1,1.59E2,9E0,1.5E1,2E0,2.48E2,4.6E1,1.2E1,9E0,1.21E2,3.24E2,1.9E1,2E0,1.3E2,2.9E1,4E0,5E0,1E0,1.4E1],"tree_param":{"num_deleted":"0","num_feature":"275","num_nodes":"29","size_leaf_vector":"1"}},{"base_weights":[1.4603155E0,-3.9101723E1,1.7234174E2,-1.09693214E2,8.682131E0,1.403142E2,4.2670206E2,-1.1797973E2,6.363737E0,8.446779E1,-2.3612345E1,1.6148793E2,-1.0406747E2,3.5063638E2,4.5212387E1,-6.56989E0,-2.2501905E0,-2.9158533E0,4.5567565E0,5.205379E0,-8.088929E0,-1.3763782E0,4.182356E1,9.285457E0,-2.1890457E0,-7.652318E0,2.886799E0,1.9348106E1,-9.502149E0],"categories":[],"categories_nodes":[],"categories_segments":[],"categories_sizes":[],"default_left":[0,0,0,0,0,0,0,0,0,0,0,0,0,0,0,0,0,0,0,0,0,0,0,0,0,0,0,0,0],"id":26,"left_children":[1,3,5,7,9,11,13,15,17,19,21,23,25,27,-1,-1,-1,-1,-1,-1,-1,-1,-1,-1,-1,-1,-1,-1,-1],"loss_changes":[6.70247E6,2.63658E6,1.4812455E6,3.0379425E5,1.1427364E6,8.6477825E5,5.8612825E5,2.8541625E5,1.20543625E5,6.830749E5,1.1143418E6,7.6227325E5,1.11405E5,4.001205E5,0E0,0E0,0E0,0E0,0E0,0E0,0E0,0E0,0E0,0E0,0E0,0E0,0E0,0E0,0E0],"parents":[2147483647,0,0,1,1,2,2,3,3,4,4,5,5,6,6,7,7,8,8,9,9,10,10,11,11,12,12,13,13],"right_children":[2,4,6,8,10,12,14,16,18,20,22,24,26,28,-1,-1,-1,-1,-1,-1,-1,-1,-1,-1,-1,-1,-1,-1,-1],"split_conditions":[1.6E1,8E0,2.4E1,1E0,1.55E0,1E0,1E0,1E0,1E0,1E0,1E0,1E0,1E0,1E0,4.5212387E1,-6.56989E0,-2.2501905E0,-2.9158533E0,4.5567565E0,5.205379E0,-8.088929E0,-1.3763782E0,4.182356E1,9.285457E0,-2.1890457E0,-7.652318E0,2.886799E0,1.9348106E1,-9.502149E0],"split_indices":[0,0,0,234,1,129,21,239,14,9,158,263,9,143,0,0,0,0,0,0,0,0,0,0,0,0,0,0,0],"split_type":[0,0,0,0,0,0,0,0,0,0,0,0,0,0,0,0,0,0,0,0,0,0,0,0,0,0,0,0,0],"sum_hessian":[9.66E2,7.81E2,1.85E2,3.15E2,4.66E2,1.65E2,2E1,2.94E2,2.1E1,1.39E2,3.27E2,1.52E2,1.3E1,1.8E1,2E0,2.48E2,4.6E1,1.2E1,9E0,1.29E2,1E1,3.26E2,1E0,1.36E2,1.6E1,1E1,3E0,1.7E1,1E0],"tree_param":{"num_deleted":"0","num_feature":"275","num_nodes":"29","size_leaf_vector":"1"}},{"base_weights":[1.432719E0,8.331256E1,-7.1787384E1,4.60913E1,2.3153894E2,-7.94885E1,2.6583014E2,3.2438595E1,3.3388376E2,4.6229788E2,1.7577986E2,-8.3290695E1,4.7123563E2,1.641125E2,2.9959555E1,3.09064E-1,7.311996E0,2.1212392E0,1.8631105E1,4.6536156E1,1.8591629E1,5.028777E0,1.5915903E1,-6.1379952E0,-1.9820035E0,2.7280287E1,9.510348E0,1.1583341E1,-3.568644E0],"categories":[],"categories_nodes":[],"categories_segments":[],"categories_sizes":[],"default_left":[0,0,0,0,0,0,0,0,0,0,0,0,0,0,0,0,0,0,0,0,0,0,0,0,0,0,0,0,0],"id":27,"left_children":[1,3,5,7,9,11,13,15,17,19,21,23,25,27,-1,-1,-1,-1,-1,-1,-1,-1,-1,-1,-1,-1,-1,-1,-1],"loss_changes":[5.7974E6,2.513253E6,1.3378818E6,1.4306876E6,1.1366905E6,1.0655582E6,3.4078262E5,1.04389494E6,1.7839125E5,5.6854775E5,7.825945E5,8.52965E5,2.1261438E4,1.5939383E5,0E0,0E0,0E0,0E0,0E0,0E0,0E0,0E0,0E0,0E0,0E0,0E0,0E0,0E0,0E0],"parents":[2147483647,0,0,1,1,2,2,3,3,4,4,5,5,6,6,7,7,8,8,9,9,10,10,11,11,12,12,13,13],"right_children":[2,4,6,8,10,12,14,16,18,20,22,24,26,28,-1,-1,-1,-1,-1,-1,-1,-1,-1,-1,-1,-1,-1,-1,-1],"split_conditions":[1E0,2.79E0,1E0,1E0,1E0,1E0,2.54E0,5.12E2,1.11E0,8E0,1E0,1.28E2,5.12E2,1E0,2.9959555E1,3.09064E-1,7.311996E0,2.1212392E0,1.8631105E1,4.6536156E1,1.8591629E1,5.028777E0,1.5915903E1,-6.1379952E0,-1.9820035E0,2.7280287E1,9.510348E0,1.1583341E1,-3.568644E0],"split_indices":[28,1,259,178,5,157,1,4,1,4,133,4,4,164,0,0,0,0,0,0,0,0,0,0,0,0,0,0,0],"split_type":[0,0,0,0,0,0,0,0,0,0,0,0,0,0,0,0,0,0,0,0,0,0,0,0,0,0,0,0,0],"sum_hessian":[9.66E2,4.56E2,5.1E2,3.65E2,9.1E1,4.99E2,1.1E1,3.49E2,1.6E1,1.7E1,7.4E1,4.96E2,3E0,9E0,2E0,2.84E2,6.5E1,2E0,1.4E1,2E0,1.5E1,4.9E1,2.5E1,2.6E2,2.36E2,2E0,1E0,7E0,2E0],"tree_param":{"num_deleted":"0","num_feature":"275","num_nodes":"29","size_leaf_vector":"1"}},{"base_weights":[1.4547602E0,-5.93931E1,1.0337081E2,-1.1355463E2,-1.3244452E1,1.9326968E2,9.635444E0,-1.1571327E2,1.618228E1,-2.3413317E1,1.5723586E2,1.8144792E2,3.8935116E1,-1.5263817E1,2.530544E2,-7.096841E0,-3.9700315E0,-1.3533378E0,1.4993413E1,1.3986994E0,1.724775E1,8.372292E0,2.7277338E1,-1.3577222E0,2.6269613E1,2.5366438E1,7.569674E0],"categories":[],"categories_nodes":[],"categories_segments":[],"categories_sizes":[],"default_left":[0,0,0,0,0,0,0,0,0,0,0,0,0,0,0,0,0,0,0,0,0,0,0,0,0,0,0],"id":28,"left_children":[1,3,5,7,9,11,13,15,-1,17,19,21,-1,23,25,-1,-1,-1,-1,-1,-1,-1,-1,-1,-1,-1,-1],"loss_changes":[5.9966975E6,1.5126838E6,3.0453225E6,2.81562E5,5.6959175E5,1.206249E6,1.0777502E6,2.586135E5,0E0,3.6960544E5,4.4407625E5,8.79638E5,0E0,1.0453748E6,3.88118E5,0E0,0E0,0E0,0E0,0E0,0E0,0E0,0E0,0E0,0E0,0E0,0E0],"parents":[2147483647,0,0,1,1,2,2,3,3,4,4,5,5,6,6,7,7,9,9,10,10,11,11,13,13,14,14],"right_children":[2,4,6,8,10,12,14,16,-1,18,20,22,-1,24,26,-1,-1,-1,-1,-1,-1,-1,-1,-1,-1,-1,-1],"split_conditions":[2.6E0,1.28E2,1E0,1E0,1E0,1E0,1E0,2.1E0,1.618228E1,1E0,1E0,1E0,3.8935116E1,2.4E1,1E0,-7.096841E0,-3.9700315E0,-1.3533378E0,1.4993413E1,1.3986994E0,1.724775E1,8.372292E0,2.7277338E1,-1.3577222E0,2.6269613E1,2.5366438E1,7.569674E0],"split_indices":[3,4,44,183,35,21,30,3,0,258,14,30,0,0,172,0,0,0,0,0,0,0,0,0,0,0,0],"split_type":[0,0,0,0,0,0,0,0,0,0,0,0,0,0,0,0,0,0,0,0,0,0,0,0,0,0,0],"sum_hessian":[9.66E2,6.05E2,3.61E2,2.78E2,3.27E2,1.84E2,1.77E2,2.77E2,1E0,3.09E2,1.8E1,1.81E2,3E0,1.61E2,1.6E1,1.6E2,1.17E2,3.06E2,3E0,1.1E1,7E0,1.75E2,6E0,1.58E2,3E0,4E0,1.2E1],"tree_param":{"num_deleted":"0","num_feature":"275","num_nodes":"27","size_leaf_vector":"1"}},{"base_weights":[1.4698763E0,-5.6392563E1,9.838543E1,-6.418638E1,1.3799443E2,3.611923E1,1.8757494E2,-9.8086235E1,-3.176895E1,2.644196E1,3.0099585E2,-1.1357354E2,6.478965E1,3.4867395E2,1.3636081E2,-5.196676E0,1.0398935E1,-1.0446287E0,-6.722088E0,2.4943674E0,-4.8036685E0,9.867454E0,2.7586857E1,-2.1762931E0,-9.018813E0,2.9307363E0,3.8900475E1,1.5448848E1,4.0543938E1,7.465501E0,-1.45972185E1],"categories":[],"categories_nodes":[],"categories_segments":[],"categories_sizes":[],"default_left":[0,0,0,0,0,0,0,0,0,0,0,0,0,0,0,0,0,0,0,0,0,0,0,0,0,0,0,0,0,0,0],"id":29,"left_children":[1,3,5,7,9,11,13,15,17,19,21,23,25,27,29,-1,-1,-1,-1,-1,-1,-1,-1,-1,-1,-1,-1,-1,-1,-1,-1],"loss_changes":[5.422684E6,9.2177125E5,2.0041998E6,6.38578E5,4.23326E5,9.199688E5,1.201433E6,5.199625E5,3.319329E5,4.40465E4,1.9244869E5,1.575129E5,7.67731E5,5.26087E5,6.512905E5,0E0,0E0,0E0,0E0,0E0,0E0,0E0,0E0,0E0,0E0,0E0,0E0,0E0,0E0,0E0,0E0],"parents":[2147483647,0,0,1,1,2,2,3,3,4,4,5,5,6,6,7,7,8,8,9,9,10,10,11,11,12,12,13,13,14,14],"right_children":[2,4,6,8,10,12,14,16,18,20,22,24,26,28,30,-1,-1,-1,-1,-1,-1,-1,-1,-1,-1,-1,-1,-1,-1,-1,-1],"split_conditions":[2.6E0,1E0,1.6E1,2.2E0,1E0,8E0,1E0,1E0,1E0,1E0,1E0,2.8E0,1E0,1E0,1E0,-5.196676E0,1.0398935E1,-1.0446287E0,-6.722088E0,2.4943674E0,-4.8036685E0,9.867454E0,2.7586857E1,-2.1762931E0,-9.018813E0,2.9307363E0,3.8900475E1,1.5448848E1,4.0543938E1,7.465501E0,-1.45972185E1],"split_indices":[3,35,0,3,14,0,172,183,231,21,2,3,158,21,83,0,0,0,0,0,0,0,0,0,0,0,0,0,0,0,0],"split_type":[0,0,0,0,0,0,0,0,0,0,0,0,0,0,0,0,0,0,0,0,0,0,0,0,0,0,0,0,0,0,0],"sum_hessian":[9.66E2,6.05E2,3.61E2,5.82E2,2.3E1,2.13E2,1.48E2,2.84E2,2.98E2,1.4E1,9E0,3.4E1,1.79E2,3.5E1,1.13E2,2.79E2,5E0,2.7E2,2.8E1,1.2E1,2E0,7E0,2E0,1.7E1,1.7E1,1.78E2,1E0,3.3E1,2E0,1.1E2,3E0],"tree_param":{"num_deleted":"0","num_feature":"275","num_nodes":"31","size_leaf_vector":"1"}},{"base_weights":[1.4543648E0,-5.3546036E1,9.3576126E1,-1.0428042E2,-1.0320697E1,1.772915E2,6.2956986E0,-1.10531166E2,2.2513233E1,7.065362E1,-4.9230877E1,1.663371E2,3.6001427E1,-3.4625478E0,4.9191458E2,-7.273853E0,-4.3966613E0,-2.1724713E0,7.9633136E0,1.4532033E0,1.2220901E1,-2.7687454E0,1.706827E1,7.553933E0,2.3400213E1,-4.713815E0,1.6185111E0,8.515634E0,2.932464E1],"categories":[],"categories_nodes":[],"categories_segments":[],"categories_sizes":[],"default_left":[0,0,0,0,0,0,0,0,0,0,0,0,0,0,0,0,0,0,0,0,0,0,0,0,0,0,0,0,0],"id":30,"left_children":[1,3,5,7,9,11,13,15,17,19,21,23,-1,25,27,-1,-1,-1,-1,-1,-1,-1,-1,-1,-1,-1,-1,-1,-1],"loss_changes":[4.8995035E6,1.32733E6,2.640819E6,2.21971E5,1.03360175E6,1.0370355E6,8.419866E5,2.032705E5,1.2523802E5,7.661005E5,5.410153E5,8.000865E5,0E0,5.6936775E5,5.6514375E4,0E0,0E0,0E0,0E0,0E0,0E0,0E0,0E0,0E0,0E0,0E0,0E0,0E0,0E0],"parents":[2147483647,0,0,1,1,2,2,3,3,4,4,5,5,6,6,7,7,8,8,9,9,10,10,11,11,13,13,14,14],"right_children":[2,4,6,8,10,12,14,16,18,20,22,24,-1,26,28,-1,-1,-1,-1,-1,-1,-1,-1,-1,-1,-1,-1,-1,-1],"split_conditions":[2.6E0,1.28E2,1E0,1E0,1.49E0,1E0,2.4E1,1.8E0,1.9E0,1E0,1E0,1E0,3.6001427E1,8E0,2.07E0,-7.273853E0,-4.3966613E0,-2.1724713E0,7.9633136E0,1.4532033E0,1.2220901E1,-2.7687454E0,1.706827E1,7.553933E0,2.3400213E1,-4.713815E0,1.6185111E0,8.515634E0,2.932464E1],"split_indices":[3,4,44,29,1,21,0,3,3,14,237,168,0,4,1,0,0,0,0,0,0,0,0,0,0,0,0,0,0],"split_type":[0,0,0,0,0,0,0,0,0,0,0,0,0,0,0,0,0,0,0,0,0,0,0,0,0,0,0,0,0],"sum_hessian":[9.66E2,6.05E2,3.61E2,2.78E2,3.27E2,1.84E2,1.77E2,2.65E2,1.3E1,1.06E2,2.21E2,1.81E2,3E0,1.74E2,3E0,1.03E2,1.62E2,9E0,4E0,8.6E1,2E1,2.18E2,3E0,1.73E2,8E0,4.9E1,1.25E2,1E0,2E0],"tree_param":{"num_deleted":"0","num_feature":"275","num_nodes":"29","size_leaf_vector":"1"}},{"base_weights":[1.4456838E0,-5.0850487E1,8.9037964E1,-9.907694E1,-9.761957E0,1.6860835E2,6.078773E0,-1.0110347E2,1.5442794E1,-1.4797527E1,2.8639304E2,1.5810548E2,3.4458508E1,-1.6077402E1,2.2275653E2,-5.268415E0,2.9727275E0,-1.1857489E0,7.5649643E0,3.3559765E1,6.3152094E0,8.64229E0,-5.893438E0,-5.447105E0,1.1837846E0,-8.028633E0,1.5694397E1],"categories":[],"categories_nodes":[],"categories_segments":[],"categories_sizes":[],"default_left":[0,0,0,0,0,0,0,0,0,0,0,0,0,0,0,0,0,0,0,0,0,0,0,0,0,0,0],"id":31,"left_children":[1,3,5,7,9,11,13,15,-1,17,19,21,-1,23,25,-1,-1,-1,-1,-1,-1,-1,-1,-1,-1,-1,-1],"loss_changes":[4.42955E6,1.1993475E6,2.3857835E6,2.458455E5,4.9052275E5,9.542525E5,8.539239E5,1.9315075E5,0E0,4.794682E5,2.9642662E5,7.485185E5,0E0,5.9749256E5,6.0160075E5,0E0,0E0,0E0,0E0,0E0,0E0,0E0,0E0,0E0,0E0,0E0,0E0],"parents":[2147483647,0,0,1,1,2,2,3,3,4,4,5,5,6,6,7,7,9,9,10,10,11,11,13,13,14,14],"right_children":[2,4,6,8,10,12,14,16,-1,18,20,22,-1,24,26,-1,-1,-1,-1,-1,-1,-1,-1,-1,-1,-1,-1],"split_conditions":[2.6E0,1.28E2,1E0,1E0,1E0,1E0,1E0,2.56E2,1.5442794E1,1E0,2.56E2,1E0,3.4458508E1,8E0,2.7E0,-5.268415E0,2.9727275E0,-1.1857489E0,7.5649643E0,3.3559765E1,6.3152094E0,8.64229E0,-5.893438E0,-5.447105E0,1.1837846E0,-8.028633E0,1.5694397E1],"split_indices":[3,4,44,183,222,21,183,7,0,168,4,128,0,4,3,0,0,0,0,0,0,0,0,0,0,0,0],"split_type":[0,0,0,0,0,0,0,0,0,0,0,0,0,0,0,0,0,0,0,0,0,0,0,0,0,0,0],"sum_hessian":[9.66E2,6.05E2,3.61E2,2.78E2,3.27E2,1.84E2,1.77E2,2.77E2,1E0,3.22E2,5E0,1.81E2,3E0,1.61E2,1.6E1,2.7E2,7E0,3.06E2,1.6E1,1E0,4E0,1.72E2,9E0,4.8E1,1.13E2,3E0,1.3E1],"tree_param":{"num_deleted":"0","num_feature":"275","num_nodes":"27","size_leaf_vector":"1"}},{"base_weights":[1.4251294E0,-4.825892E1,8.464222E1,-6.484359E1,4.647619E1,1.6027875E2,5.784412E0,-9.359495E1,-3.7169437E1,6.657133E1,-1.5129878E2,1.5020776E2,3.2981712E1,-1.7261242E1,2.311772E2,-5.543582E0,-5.797631E-1,-2.8737838E0,1.36199E0,2.6881998E0,1.4129567E1,-1.3904856E1,-4.5445914E0,6.8625817E0,2.4423456E1,-1.3479248E0,2.1217587E1,6.9804277E0,2.299241E1],"categories":[],"categories_nodes":[],"categories_segments":[],"categories_sizes":[],"default_left":[0,0,0,0,0,0,0,0,0,0,0,0,0,0,0,0,0,0,0,0,0,0,0,0,0,0,0,0,0],"id":32,"left_children":[1,3,5,7,9,11,13,15,17,19,21,23,-1,25,27,-1,-1,-1,-1,-1,-1,-1,-1,-1,-1,-1,-1,-1,-1],"loss_changes":[3.9980965E6,9.528384E5,2.1557145E6,4.0842825E5,3.647117E5,8.783095E5,9.2398775E5,3.5706975E5,3.4541697E5,2.2065122E5,5.2467375E4,7.6191325E5,0E0,6.9733294E5,3.133957E5,0E0,0E0,0E0,0E0,0E0,0E0,0E0,0E0,0E0,0E0,0E0,0E0,0E0,0E0],"parents":[2147483647,0,0,1,1,2,2,3,3,4,4,5,5,6,6,7,7,8,8,9,9,10,10,11,11,13,13,14,14],"right_children":[2,4,6,8,10,12,14,16,18,20,22,24,-1,26,28,-1,-1,-1,-1,-1,-1,-1,-1,-1,-1,-1,-1,-1,-1],"split_conditions":[2.6E0,1E0,1E0,2.3E0,1E0,1E0,1E0,1E0,1E0,1E0,1.1E0,1E0,3.2981712E1,1E0,1E0,-5.543582E0,-5.797631E-1,-2.8737838E0,1.36199E0,2.6881998E0,1.4129567E1,-1.3904856E1,-4.5445914E0,6.8625817E0,2.4423456E1,-1.3479248E0,2.1217587E1,6.9804277E0,2.299241E1],"split_indices":[3,29,44,3,9,21,30,263,100,222,3,30,0,157,183,0,0,0,0,0,0,0,0,0,0,0,0,0,0],"split_type":[0,0,0,0,0,0,0,0,0,0,0,0,0,0,0,0,0,0,0,0,0,0,0,0,0,0,0,0,0],"sum_hessian":[9.66E2,6.05E2,3.61E2,5.15E2,9E1,1.84E2,1.77E2,2.52E2,2.63E2,8.2E1,8E0,1.81E2,3E0,1.61E2,1.6E1,2.08E2,4.4E1,2E2,6.3E1,7.8E1,4E0,2E0,6E0,1.75E2,6E0,1.58E2,3E0,1.2E1,4E0],"tree_param":{"num_deleted":"0","num_feature":"275","num_nodes":"29","size_leaf_vector":"1"}},{"base_weights":[1.4081092E0,-4.5853626E1,8.056793E1,-9.04296E1,-7.877024E0,1.52439E2,5.6355724E0,-9.237141E1,1.4947359E1,2.2155966E1,-5.272527E1,1.3820787E2,4.790797E2,-1.6336683E1,2.2052657E2,-5.552223E0,-2.6263597E0,7.5412035E-1,1.3321513E1,-2.892966E0,2.057562E1,6.170438E0,2.1259485E1,3.7003338E0,2.6785292E1,-2.9015584E0,2.5965512E0,2.1970526E1,6.645365E0],"categories":[],"categories_nodes":[],"categories_segments":[],"categories_sizes":[],"default_left":[0,0,0,0,0,0,0,0,0,0,0,0,0,0,0,0,0,0,0,0,0,0,0,0,0,0,0,0,0],"id":33,"left_children":[1,3,5,7,9,11,13,15,-1,17,19,21,23,25,27,-1,-1,-1,-1,-1,-1,-1,-1,-1,-1,-1,-1,-1,-1],"loss_changes":[3.6177465E6,1.02466075E6,1.9464178E6,2.2437925E5,4.417027E5,8.24535E5,8.3989244E5,2.0354725E5,0E0,3.3752094E5,3.2532472E5,7.2762025E5,1.5220988E5,4.6119822E5,2.8724406E5,0E0,0E0,0E0,0E0,0E0,0E0,0E0,0E0,0E0,0E0,0E0,0E0,0E0,0E0],"parents":[2147483647,0,0,1,1,2,2,3,3,4,4,5,5,6,6,7,7,9,9,10,10,11,11,12,12,13,13,14,14],"right_children":[2,4,6,8,10,12,14,16,-1,18,20,22,24,26,28,-1,-1,-1,-1,-1,-1,-1,-1,-1,-1,-1,-1,-1,-1],"split_conditions":[2.6E0,1.28E2,1E0,1E0,1E0,1E0,1E0,5E2,1.4947359E1,1E0,3.2E1,1E0,1E0,1E0,1E0,-5.552223E0,-2.6263597E0,7.5412035E-1,1.3321513E1,-2.892966E0,2.057562E1,6.170438E0,2.1259485E1,3.7003338E0,2.6785292E1,-2.9015584E0,2.5965512E0,2.1970526E1,6.645365E0],"split_indices":[3,4,44,183,44,183,30,5,0,222,5,168,26,259,172,0,0,0,0,0,0,0,0,0,0,0,0,0,0],"split_type":[0,0,0,0,0,0,0,0,0,0,0,0,0,0,0,0,0,0,0,0,0,0,0,0,0,0,0,0,0],"sum_hessian":[9.66E2,6.05E2,3.61E2,2.78E2,3.27E2,1.84E2,1.77E2,2.77E2,1E0,1.96E2,1.31E2,1.77E2,7E0,1.61E2,1.6E1,1.88E2,8.9E1,1.91E2,5E0,1.3E2,1E0,1.69E2,8E0,1E0,6E0,1E2,6.1E1,4E0,1.2E1],"tree_param":{"num_deleted":"0","num_feature":"275","num_nodes":"29","size_leaf_vector":"1"}},{"base_weights":[1.4022391E0,-2.8061586E1,1.25527725E2,-7.753675E1,5.4291887E0,1.00552216E2,3.2409766E2,-8.0969444E1,9.1876495E1,-1.0860881E0,2.6325476E2,1.1962562E2,-1.1863082E2,3.574185E2,-1.0855269E1,-3.8261967E0,-9.641955E0,1.5641977E0,6.967191E0,-1.6997813E-1,3.5012936E1,1.4948769E1,-3.7270527E0,6.4182787E0,-1.3539226E1,-8.020343E0,1.1822275E0,1.9576288E1,-9.118876E0],"categories":[],"categories_nodes":[],"categories_segments":[],"categories_sizes":[],"default_left":[0,0,0,0,0,0,0,0,0,0,0,0,0,0,0,0,0,0,0,0,0,0,0,0,0,0,0,0,0],"id":34,"left_children":[1,3,5,7,9,11,13,15,17,19,21,23,25,27,-1,-1,-1,-1,-1,-1,-1,-1,-1,-1,-1,-1,-1,-1,-1],"loss_changes":[3.5364562E6,1.2951262E6,9.0367175E5,1.8719638E5,7.83772E5,6.9897975E5,4.08482E5,1.465415E5,1.6515469E4,7.402588E5,1.4990506E5,5.3773475E5,8.213633E4,3.9471675E5,0E0,0E0,0E0,0E0,0E0,0E0,0E0,0E0,0E0,0E0,0E0,0E0,0E0,0E0,0E0],"parents":[2147483647,0,0,1,1,2,2,3,3,4,4,5,5,6,6,7,7,8,8,9,9,10,10,11,11,12,12,13,13],"right_children":[2,4,6,8,10,12,14,16,18,20,22,24,26,28,-1,-1,-1,-1,-1,-1,-1,-1,-1,-1,-1,-1,-1,-1,-1],"split_conditions":[1.6E1,8E0,2.4E1,1E0,1E0,1E0,1E0,1E0,1E0,1E0,1E0,1E0,1E0,1E0,-1.0855269E1,-3.8261967E0,-9.641955E0,1.5641977E0,6.967191E0,-1.6997813E-1,3.5012936E1,1.4948769E1,-3.7270527E0,6.4182787E0,-1.3539226E1,-8.020343E0,1.1822275E0,1.9576288E1,-9.118876E0],"split_indices":[0,0,0,35,178,129,143,194,14,158,35,83,9,37,0,0,0,0,0,0,0,0,0,0,0,0,0,0,0],"split_type":[0,0,0,0,0,0,0,0,0,0,0,0,0,0,0,0,0,0,0,0,0,0,0,0,0,0,0,0,0],"sum_hessian":[9.66E2,7.81E2,1.85E2,3.15E2,4.66E2,1.65E2,2E1,3.09E2,6E0,4.55E2,1.1E1,1.52E2,1.3E1,1.9E1,1E0,2.98E2,1.1E1,3E0,3E0,4.54E2,1E0,1E1,1E0,1.49E2,3E0,1E1,3E0,1.8E1,1E0],"tree_param":{"num_deleted":"0","num_feature":"275","num_nodes":"29","size_leaf_vector":"1"}},{"base_weights":[1.3459713E0,-2.663219E1,1.1921261E2,-6.611237E1,2.513377E1,2.491573E2,7.421637E1,-9.283158E1,-3.577459E1,2.2199722E1,3.3845837E1,4.40654E2,1.9221613E2,4.189706E1,2.399093E2,-4.993823E0,8.9930487E-1,-1.9274578E0,1.7998255E1,4.4507294E0,-2.0793548E-1,1.3702163E1,3.161762E1,-1.2891179E1,1.0403891E1,1.693146E0,3.2328014E1,1.2347266E1,2.9544961E0],"categories":[],"categories_nodes":[],"categories_segments":[],"categories_sizes":[],"default_left":[0,0,0,0,0,0,0,0,0,0,0,0,0,0,0,0,0,0,0,0,0,0,0,0,0,0,0,0,0],"id":35,"left_children":[1,3,5,7,9,11,13,15,17,19,-1,21,23,25,27,-1,-1,-1,-1,-1,-1,-1,-1,-1,-1,-1,-1,-1,-1],"loss_changes":[3.1888065E6,1.5980058E6,1.075377E6,3.5784125E5,6.398211E5,4.755915E5,7.3665306E5,1.8475225E5,2.3587231E5,5.945681E5,0E0,2.4871388E5,2.9451338E5,5.55004E5,2.13295E4,0E0,0E0,0E0,0E0,0E0,0E0,0E0,0E0,0E0,0E0,0E0,0E0,0E0,0E0],"parents":[2147483647,0,0,1,1,2,2,3,3,4,4,5,5,6,6,7,7,8,8,9,9,11,11,12,12,13,13,14,14],"right_children":[2,4,6,8,10,12,14,16,18,20,-1,22,24,26,28,-1,-1,-1,-1,-1,-1,-1,-1,-1,-1,-1,-1,-1,-1],"split_conditions":[1.6E1,1.8E2,1E0,1E0,1E0,8E0,1E0,1E0,1E0,1.38E0,3.3845837E1,2.07E0,1.8E2,1E0,4.5E0,-4.993823E0,8.9930487E-1,-1.9274578E0,1.7998255E1,4.4507294E0,-2.0793548E-1,1.3702163E1,3.161762E1,-1.2891179E1,1.0403891E1,1.693146E0,3.2328014E1,1.2347266E1,2.9544961E0],"split_indices":[0,4,172,172,158,4,133,29,56,1,0,1,4,145,1,0,0,0,0,0,0,0,0,0,0,0,0,0,0],"split_type":[0,0,0,0,0,0,0,0,0,0,0,0,0,0,0,0,0,0,0,0,0,0,0,0,0,0,0,0,0],"sum_hessian":[9.66E2,7.81E2,1.85E2,4.43E2,3.38E2,4.7E1,1.38E2,2.35E2,2.08E2,3.37E2,1E0,1E1,3.7E1,1.16E2,2.2E1,2.21E2,1.4E1,2.07E2,1E0,9.5E1,2.42E2,6E0,4E0,1E0,3.6E1,1.15E2,1E0,2.1E1,1E0],"tree_param":{"num_deleted":"0","num_feature":"275","num_nodes":"29","size_leaf_vector":"1"}},{"base_weights":[1.3522469E0,-4.081906E1,7.198586E1,-5.4985413E1,4.0099857E1,5.8286705E1,2.7709125E2,-5.836817E1,2.1440073E2,5.93453E1,-1.4905295E2,5.268228E1,2.943926E1,2.0498723E2,2.4066153E1,-3.0512064E0,9.528051E0,1.4717586E1,1.3804382E0,3.7127075E0,-1.0366263E1,-1.3550058E1,-4.534209E0,3.1084294E0,-9.784474E0,6.552275E0,2.0201801E1],"categories":[],"categories_nodes":[],"categories_segments":[],"categories_sizes":[],"default_left":[0,0,0,0,0,0,0,0,0,0,0,0,0,0,0,0,0,0,0,0,0,0,0,0,0,0,0],"id":36,"left_children":[1,3,5,7,9,11,13,15,17,19,21,23,-1,25,-1,-1,-1,-1,-1,-1,-1,-1,-1,-1,-1,-1,-1],"loss_changes":[2.8803945E6,6.952026E5,1.0076569E6,4.7601638E5,3.3387253E5,9.938711E5,2.82001E5,3.42667E5,9.3009E4,3.3569697E5,4.8214953E4,7.989209E5,0E0,2.3109169E5,0E0,0E0,0E0,0E0,0E0,0E0,0E0,0E0,0E0,0E0,0E0,0E0,0E0],"parents":[2147483647,0,0,1,1,2,2,3,3,4,4,5,5,6,6,7,7,8,8,9,9,10,10,11,11,13,13],"right_children":[2,4,6,8,10,12,14,16,18,20,22,24,-1,26,-1,-1,-1,-1,-1,-1,-1,-1,-1,-1,-1,-1,-1],"split_conditions":[2.6E0,1E0,1E0,1E0,1E0,1E0,1E0,1E0,1E0,1E0,1.1E0,1E0,2.943926E1,1E0,2.4066153E1,-3.0512064E0,9.528051E0,1.4717586E1,1.3804382E0,3.7127075E0,-1.0366263E1,-1.3550058E1,-4.534209E0,3.1084294E0,-9.784474E0,6.552275E0,2.0201801E1],"split_indices":[3,29,30,237,9,21,168,132,40,60,3,194,0,183,0,0,0,0,0,0,0,0,0,0,0,0,0],"split_type":[0,0,0,0,0,0,0,0,0,0,0,0,0,0,0,0,0,0,0,0,0,0,0,0,0,0,0],"sum_hessian":[9.66E2,6.05E2,3.61E2,5.15E2,9E1,3.39E2,2.2E1,5.09E2,6E0,8.2E1,8E0,3.36E2,3E0,1.7E1,5E0,5.04E2,5E0,4E0,2E0,7.8E1,4E0,2E0,6E0,3.24E2,1.2E1,1.3E1,4E0],"tree_param":{"num_deleted":"0","num_feature":"275","num_nodes":"27","size_leaf_vector":"1"}},{"base_weights":[1.3215821E0,-2.4561634E1,1.10362404E2,-6.1286366E1,2.3591099E1,8.753845E1,2.919323E2,-6.744942E1,1.7316243E2,1.5690652E1,2.4755638E2,1.05425865E2,-1.1776527E2,5.560779E2,1.634556E2,-3.525048E0,6.8983703E0,9.678364E0,-1.3696167E0,4.118402E0,-5.266146E-1,-3.874933E0,1.4110221E1,5.685277E0,-1.3164757E1,-7.8792176E0,9.257804E-1,6.454118E0,3.1098932E1,-4.381429E0,1.7292307E1],"categories":[],"categories_nodes":[],"categories_segments":[],"categories_sizes":[],"default_left":[0,0,0,0,0,0,0,0,0,0,0,0,0,0,0,0,0,0,0,0,0,0,0,0,0,0,0,0,0,0,0],"id":37,"left_children":[1,3,5,7,9,11,13,15,17,19,21,23,25,27,29,-1,-1,-1,-1,-1,-1,-1,-1,-1,-1,-1,-1,-1,-1,-1,-1],"loss_changes":[2.7291345E6,1.3827245E6,7.55961E5,6.466615E5,5.970085E5,6.139821E5,6.502524E5,2.7597112E5,4.971247E4,5.7306006E5,1.4045412E5,4.805345E5,7.471772E4,1.4276275E5,6.791859E5,0E0,0E0,0E0,0E0,0E0,0E0,0E0,0E0,0E0,0E0,0E0,0E0,0E0,0E0,0E0,0E0],"parents":[2147483647,0,0,1,1,2,2,3,3,4,4,5,5,6,6,7,7,8,8,9,9,10,10,11,11,12,12,13,13,14,14],"right_children":[2,4,6,8,10,12,14,16,18,20,22,24,26,28,30,-1,-1,-1,-1,-1,-1,-1,-1,-1,-1,-1,-1,-1,-1,-1,-1],"split_conditions":[1.6E1,1.8E2,2.4E1,1E0,1E0,1E0,8E0,1E0,1E0,1.38E0,1.05E0,1E0,1E0,2.07E0,5.12E2,-3.525048E0,6.8983703E0,9.678364E0,-1.3696167E0,4.118402E0,-5.266146E-1,-3.874933E0,1.4110221E1,5.685277E0,-1.3164757E1,-7.8792176E0,9.257804E-1,6.454118E0,3.1098932E1,-4.381429E0,1.7292307E1],"split_indices":[0,4,0,132,178,129,4,30,236,1,1,83,9,1,4,0,0,0,0,0,0,0,0,0,0,0,0,0,0,0,0],"split_type":[0,0,0,0,0,0,0,0,0,0,0,0,0,0,0,0,0,0,0,0,0,0,0,0,0,0,0,0,0,0,0],"sum_hessian":[9.66E2,7.81E2,1.85E2,4.43E2,3.38E2,1.65E2,2E1,4.32E2,1.1E1,3.27E2,1.1E1,1.52E2,1.3E1,6E0,1.4E1,4.26E2,6E0,1E1,1E0,9.2E1,2.35E2,1E0,1E1,1.49E2,3E0,1E1,3E0,1E0,5E0,6E0,8E0],"tree_param":{"num_deleted":"0","num_feature":"275","num_nodes":"31","size_leaf_vector":"1"}},{"base_weights":[1.2873322E0,-2.3317236E1,1.0494138E2,-6.987091E1,1.1325596E1,7.002233E1,2.14797E2,-7.314356E1,1.7752296E2,5.4168196E0,2.3562357E2,5.310624E1,3.315855E2,3.0167181E1,1.6897333E2,-3.8572183E0,6.5799866E0,1.4310641E1,1.6664257E0,3.7803257E0,-7.746068E-1,-3.7457683E0,1.3438306E1,6.4797983E0,-7.063392E-1,5.5244823E0,2.579193E1,1.0581813E1,1.8500662E0],"categories":[],"categories_nodes":[],"categories_segments":[],"categories_sizes":[],"default_left":[0,0,0,0,0,0,0,0,0,0,0,0,0,0,0,0,0,0,0,0,0,0,0,0,0,0,0,0,0],"id":38,"left_children":[1,3,5,7,9,11,13,15,17,19,21,23,25,-1,27,-1,-1,-1,-1,-1,-1,-1,-1,-1,-1,-1,-1,-1,-1],"loss_changes":[2.4661492E6,1.2607608E6,7.040676E5,2.7650475E5,5.937708E5,6.1728006E5,7.413316E5,2.7498188E5,6.575659E4,6.426576E5,1.28425875E5,6.8745725E5,3.177722E5,0E0,2.2411225E5,0E0,0E0,0E0,0E0,0E0,0E0,0E0,0E0,0E0,0E0,0E0,0E0,0E0,0E0],"parents":[2147483647,0,0,1,1,2,2,3,3,4,4,5,5,6,6,7,7,8,8,9,9,10,10,11,11,12,12,14,14],"right_children":[2,4,6,8,10,12,14,16,18,20,22,24,26,-1,28,-1,-1,-1,-1,-1,-1,-1,-1,-1,-1,-1,-1,-1,-1],"split_conditions":[1.6E1,1.28E2,3.4E0,1E0,1E0,1E0,8E0,1E0,1E0,1.38E0,1.05E0,2.07E0,2.31E0,3.0167181E1,1E0,-3.8572183E0,6.5799866E0,1.4310641E1,1.6664257E0,3.7803257E0,-7.746068E-1,-3.7457683E0,1.3438306E1,6.4797983E0,-7.063392E-1,5.5244823E0,2.579193E1,1.0581813E1,1.8500662E0],"split_indices":[0,4,1,132,178,30,4,30,44,1,1,1,1,0,9,0,0,0,0,0,0,0,0,0,0,0,0,0,0],"split_type":[0,0,0,0,0,0,0,0,0,0,0,0,0,0,0,0,0,0,0,0,0,0,0,0,0,0,0,0,0],"sum_hessian":[9.66E2,7.81E2,1.85E2,3.33E2,4.48E2,1.41E2,4.4E1,3.29E2,4E0,4.37E2,1.1E1,1.33E2,8E0,4E0,4E1,3.23E2,6E0,2E0,2E0,1E2,3.37E2,1E0,1E1,6.2E1,7.1E1,4E0,4E0,3E1,1E1],"tree_param":{"num_deleted":"0","num_feature":"275","num_nodes":"29","size_leaf_vector":"1"}},{"base_weights":[1.2804267E0,-2.213129E1,9.990909E1,-5.545079E1,2.1556345E1,2.1709029E2,5.9359905E1,-6.1183464E1,1.6255844E2,1.8779432E1,3.1958815E1,3.9021222E2,1.657216E2,5.3011276E1,3.1076542E1,-3.25936E0,4.41112E0,9.633725E0,7.8028566E-1,8.037969E-1,3.0950178E1,2.1126736E1,2.771627E0,9.332083E0,-8.224365E0,3.5982819E0,-5.512778E0],"categories":[],"categories_nodes":[],"categories_segments":[],"categories_sizes":[],"default_left":[0,0,0,0,0,0,0,0,0,0,0,0,0,0,0,0,0,0,0,0,0,0,0,0,0,0,0],"id":39,"left_children":[1,3,5,7,9,11,13,15,17,19,-1,21,23,25,-1,-1,-1,-1,-1,-1,-1,-1,-1,-1,-1,-1,-1],"loss_changes":[2.232818E6,1.1381882E6,8.749789E5,5.592484E5,5.7455175E5,3.9008625E5,4.7783438E5,2.6158912E5,4.9391438E4,5.4268656E5,0E0,1.01908375E5,2.7439956E5,4.2947725E5,0E0,0E0,0E0,0E0,0E0,0E0,0E0,0E0,0E0,0E0,0E0,0E0,0E0],"parents":[2147483647,0,0,1,1,2,2,3,3,4,4,5,5,6,6,7,7,8,8,9,9,11,11,12,12,13,13],"right_children":[2,4,6,8,10,12,14,16,18,20,-1,22,24,26,-1,-1,-1,-1,-1,-1,-1,-1,-1,-1,-1,-1,-1],"split_conditions":[1.6E1,1.8E2,1E0,1E0,1E0,8E0,1E0,1E0,1E0,1E0,3.1958815E1,1E0,1E0,1E0,3.1076542E1,-3.25936E0,4.41112E0,9.633725E0,7.8028566E-1,8.037969E-1,3.0950178E1,2.1126736E1,2.771627E0,9.332083E0,-8.224365E0,3.5982819E0,-5.512778E0],"split_indices":[0,4,172,132,158,4,155,168,17,162,0,249,248,263,0,0,0,0,0,0,0,0,0,0,0,0,0],"split_type":[0,0,0,0,0,0,0,0,0,0,0,0,0,0,0,0,0,0,0,0,0,0,0,0,0,0,0],"sum_hessian":[9.66E2,7.81E2,1.85E2,4.43E2,3.38E2,4.7E1,1.38E2,4.32E2,1.1E1,3.37E2,1E0,1E1,3.7E1,1.37E2,1E0,4.21E2,1.1E1,9E0,2E0,3.36E2,1E0,9E0,1E0,3.5E1,2E0,1.23E2,1.4E1],"tree_param":{"num_deleted":"0","num_feature":"275","num_nodes":"27","size_leaf_vector":"1"}},{"base_weights":[1.2833809E0,-2.2564457E1,8.91073E1,-2.9084673E1,1.3396999E2,1.3501758E2,1.3387234E1,-3.234521E1,2.4977187E2,9.401001E1,2.8135986E1,1.2146708E2,4.2701364E2,-4.363197E0,3.9437692E2,-1.7853392E0,1.1091449E1,1.5865817E1,-8.560392E0,2.8022444E0,1.2383912E1,5.5158944E0,2.4398268E1,2.8520075E1,1.317959E1,-1.5420485E0,1.18879E1,5.3187623E0,2.4415129E1],"categories":[],"categories_nodes":[],"categories_segments":[],"categories_sizes":[],"default_left":[0,0,0,0,0,0,0,0,0,0,0,0,0,0,0,0,0,0,0,0,0,0,0,0,0,0,0,0,0],"id":40,"left_children":[1,3,5,7,9,11,13,15,17,19,-1,21,23,25,27,-1,-1,-1,-1,-1,-1,-1,-1,-1,-1,-1,-1,-1,-1],"loss_changes":[2.025253E6,7.781439E5,7.1695825E5,6.6822625E5,4.961007E5,4.82501E5,5.3173475E5,6.212825E5,2.6885988E5,1.5932938E5,0E0,4.77725E5,5.3703312E4,4.8768403E5,6.8705875E4,0E0,0E0,0E0,0E0,0E0,0E0,0E0,0E0,0E0,0E0,0E0,0E0,0E0,0E0],"parents":[2147483647,0,0,1,1,2,2,3,3,4,4,5,5,6,6,7,7,8,8,9,9,11,11,12,12,13,13,14,14],"right_children":[2,4,6,8,10,12,14,16,18,20,-1,22,24,26,28,-1,-1,-1,-1,-1,-1,-1,-1,-1,-1,-1,-1,-1,-1],"split_conditions":[1.2E1,1E0,1E0,1E0,2.6E0,1E0,2.4E1,1E0,1E0,1E0,2.8135986E1,1E0,3.52E0,1E0,2.07E0,-1.7853392E0,1.1091449E1,1.5865817E1,-8.560392E0,2.8022444E0,1.2383912E1,5.5158944E0,2.4398268E1,2.8520075E1,1.317959E1,-1.5420485E0,1.18879E1,5.3187623E0,2.4415129E1],"split_indices":[0,168,44,183,1,135,0,178,21,248,0,168,1,133,1,0,0,0,0,0,0,0,0,0,0,0,0,0,0],"split_type":[0,0,0,0,0,0,0,0,0,0,0,0,0,0,0,0,0,0,0,0,0,0,0,0,0,0,0,0,0],"sum_hessian":[9.66E2,7.6E2,2.06E2,7.3E2,3E1,1.28E2,7.8E1,7.22E2,8E0,2.8E1,2E0,1.23E2,5E0,7.5E1,3E0,7.13E2,9E0,7E0,1E0,2.3E1,5E0,1.2E2,3E0,2E0,3E0,6.8E1,7E0,1E0,2E0],"tree_param":{"num_deleted":"0","num_feature":"275","num_nodes":"29","size_leaf_vector":"1"}},{"base_weights":[1.3080007E0,-3.3908684E1,6.029292E1,4.2260727E1,-4.8302E1,3.853453E1,1.939086E2,7.550108E1,-1.099529E2,-8.01134E1,-2.0046982E1,2.2993261E1,2.4762622E2,4.702646E2,1.5136325E2,1.4739112E0,1.1885563E1,5.9924E0,-6.3755994E0,-4.105324E0,6.2625613E0,-2.1788504E0,2.4158697E0,4.51328E0,-1.3338085E0,1.45872345E1,-1.0473258E0,2.6309736E1,5.421629E0,2.1065847E1,5.974986E0],"categories":[],"categories_nodes":[],"categories_segments":[],"categories_sizes":[],"default_left":[0,0,0,0,0,0,0,0,0,0,0,0,0,0,0,0,0,0,0,0,0,0,0,0,0,0,0,0,0,0,0],"id":41,"left_children":[1,3,5,7,9,11,13,15,17,19,21,23,25,27,29,-1,-1,-1,-1,-1,-1,-1,-1,-1,-1,-1,-1,-1,-1,-1,-1],"loss_changes":[2.0086875E6,6.648487E5,1.0472391E6,4.924056E5,4.5715162E5,1.009388E6,5.581716E5,5.8999375E5,7.825516E4,1.03171E5,4.361833E5,9.718745E5,2.5780938E5,1.03014125E5,3.5760112E5,0E0,0E0,0E0,0E0,0E0,0E0,0E0,0E0,0E0,0E0,0E0,0E0,0E0,0E0,0E0,0E0],"parents":[2147483647,0,0,1,1,2,2,3,3,4,4,5,5,6,6,7,7,8,8,9,9,10,10,11,11,12,12,13,13,14,14],"right_children":[2,4,6,8,10,12,14,16,18,20,22,24,26,28,30,-1,-1,-1,-1,-1,-1,-1,-1,-1,-1,-1,-1,-1,-1,-1,-1],"split_conditions":[2.6E0,1.3E0,3.4E0,1E0,2.3E0,1E0,8E0,1E0,1.09E0,1E0,1E0,2.02E0,2E0,1E0,3.52E0,1.4739112E0,1.1885563E1,5.9924E0,-6.3755994E0,-4.105324E0,6.2625613E0,-2.1788504E0,2.4158697E0,4.51328E0,-1.3338085E0,1.45872345E1,-1.0473258E0,2.6309736E1,5.421629E0,2.1065847E1,5.974986E0],"split_indices":[3,1,1,32,3,30,4,14,1,39,100,1,5,14,1,0,0,0,0,0,0,0,0,0,0,0,0,0,0,0,0],"split_type":[0,0,0,0,0,0,0,0,0,0,0,0,0,0,0,0,0,0,0,0,0,0,0,0,0,0,0,0,0,0,0],"sum_hessian":[9.66E2,6.05E2,3.61E2,9.6E1,5.09E2,3.11E2,5E1,7.9E1,1.7E1,2.39E2,2.7E2,2.9E2,2.1E1,6E0,4.4E1,6.2E1,1.7E1,1E0,1.6E1,2.37E2,2E0,2.01E2,6.9E1,1.23E2,1.67E2,1.8E1,3E0,5E0,1E0,4E0,4E1],"tree_param":{"num_deleted":"0","num_feature":"275","num_nodes":"31","size_leaf_vector":"1"}},{"base_weights":[1.2896018E0,4.597816E1,-3.8673126E1,2.3151388E1,1.3214453E2,1.0471376E1,-4.1831337E1,3.982678E0,1.0087076E2,1.1282396E2,3.1194098E1,-4.4070107E1,1.4246422E1,-2.7060902E-1,1.1607271E1,5.668665E0,-1.3343699E1,4.7140117E0,1.9879051E1,-2.3321702E0,1.2265951E1],"categories":[],"categories_nodes":[],"categories_segments":[],"categories_sizes":[],"default_left":[0,0,0,0,0,0,0,0,0,0,0,0,0,0,0,0,0,0,0,0,0],"id":42,"left_children":[1,3,5,7,9,-1,11,13,15,17,-1,19,-1,-1,-1,-1,-1,-1,-1,-1,-1],"loss_changes":[1.7269389E6,8.9636025E5,4.043848E5,5.383546E5,8.72118E5,0E0,3.7534056E5,6.233314E5,3.438668E5,4.6970012E5,0E0,3.7918056E5,0E0,0E0,0E0,0E0,0E0,0E0,0E0,0E0,0E0],"parents":[2147483647,0,0,1,1,2,2,3,3,4,4,6,6,7,7,8,8,9,9,11,11],"right_children":[2,4,6,8,10,-1,12,14,16,18,-1,20,-1,-1,-1,-1,-1,-1,-1,-1,-1],"split_conditions":[1E0,2.73E0,1.17E0,5.12E2,1E0,1.0471376E1,1E0,1E0,1E0,1E0,3.1194098E1,1E0,1.4246422E1,-2.7060902E-1,1.1607271E1,5.668665E0,-1.3343699E1,4.7140117E0,1.9879051E1,-2.3321702E0,1.2265951E1],"split_indices":[28,1,1,4,168,0,261,183,220,135,0,183,0,0,0,0,0,0,0,0,0],"split_type":[0,0,0,0,0,0,0,0,0,0,0,0,0,0,0,0,0,0,0,0,0],"sum_hessian":[9.66E2,4.56E2,5.1E2,3.61E2,9.5E1,6E0,5.04E2,2.9E2,7.1E1,9.2E1,3E0,5.01E2,3E0,2.79E2,1.1E1,6.9E1,2E0,8.7E1,5E0,4.97E2,4E0],"tree_param":{"num_deleted":"0","num_feature":"275","num_nodes":"21","size_leaf_vector":"1"}},{"base_weights":[1.273807E0,-3.1017889E1,5.535952E1,3.8849586E1,-4.4220444E1,3.521894E1,1.7904486E2,7.009488E1,-1.0420333E2,-7.435368E1,-1.7458813E1,2.0848156E1,2.2857263E2,4.4359177E2,1.3839143E2,1.3463396E0,1.1113196E1,5.8016734E0,-6.053359E0,-5.897537E0,-3.2391899E0,-1.7425978E0,2.5117002E0,4.246782E0,-1.3233318E0,1.3496323E1,-1.1332581E0,3.1696218E1,1.4428174E1,1.9829865E1,5.3996677E0],"categories":[],"categories_nodes":[],"categories_segments":[],"categories_sizes":[],"default_left":[0,0,0,0,0,0,0,0,0,0,0,0,0,0,0,0,0,0,0,0,0,0,0,0,0,0,0,0,0,0,0],"id":43,"left_children":[1,3,5,7,9,11,13,15,17,19,21,23,25,27,29,-1,-1,-1,-1,-1,-1,-1,-1,-1,-1,-1,-1,-1,-1,-1,-1],"loss_changes":[1.6888695E6,5.593899E5,8.973776E5,4.3498112E5,4.1021912E5,8.631651E5,5.1241962E5,5.192309E5,7.2019625E4,9.610325E4,3.1935953E5,8.82003E5,2.2643638E5,1.00331375E5,3.278638E5,0E0,0E0,0E0,0E0,0E0,0E0,0E0,0E0,0E0,0E0,0E0,0E0,0E0,0E0,0E0,0E0],"parents":[2147483647,0,0,1,1,2,2,3,3,4,4,5,5,6,6,7,7,8,8,9,9,10,10,11,11,12,12,13,13,14,14],"right_children":[2,4,6,8,10,12,14,16,18,20,22,24,26,28,30,-1,-1,-1,-1,-1,-1,-1,-1,-1,-1,-1,-1,-1,-1,-1,-1],"split_conditions":[2.6E0,1.3E0,3.4E0,1E0,2.3E0,1E0,8E0,1E0,1.09E0,1.6E0,1E0,2.02E0,2E0,3.6E0,3.52E0,1.3463396E0,1.1113196E1,5.8016734E0,-6.053359E0,-5.897537E0,-3.2391899E0,-1.7425978E0,2.5117002E0,4.246782E0,-1.3233318E0,1.3496323E1,-1.1332581E0,3.1696218E1,1.4428174E1,1.9829865E1,5.3996677E0],"split_indices":[3,1,1,32,3,30,4,14,1,3,40,1,5,1,1,0,0,0,0,0,0,0,0,0,0,0,0,0,0,0,0],"split_type":[0,0,0,0,0,0,0,0,0,0,0,0,0,0,0,0,0,0,0,0,0,0,0,0,0,0,0,0,0,0,0],"sum_hessian":[9.66E2,6.05E2,3.61E2,9.6E1,5.09E2,3.11E2,5E1,7.9E1,1.7E1,2.39E2,2.7E2,2.9E2,2.1E1,6E0,4.4E1,6.2E1,1.7E1,1E0,1.6E1,4.2E1,1.97E2,2.15E2,5.5E1,1.23E2,1.67E2,1.8E1,3E0,2E0,4E0,4E0,4E1],"tree_param":{"num_deleted":"0","num_feature":"275","num_nodes":"31","size_leaf_vector":"1"}},{"base_weights":[1.256925E0,4.2083225E1,-3.5252056E1,3.1160868E1,2.0556355E2,-3.7920654E1,1.783652E1,2.2337528E1,2.2610141E2,1.0558895E1,1.7056315E0,-4.0706028E1,2.2000877E2,9.098191E-1,1.9696957E1,1.2319679E1,-4.30038E0,-2.1991193E0,5.745446E0,1.6348751E1,1.3127136E0],"categories":[],"categories_nodes":[],"categories_segments":[],"categories_sizes":[],"default_left":[0,0,0,0,0,0,0,0,0,0,0,0,0,0,0,0,0,0,0,0,0],"id":44,"left_children":[1,3,5,7,9,11,-1,13,15,-1,-1,17,19,-1,-1,-1,-1,-1,-1,-1,-1],"loss_changes":[1.4413359E6,8.1191944E5,5.4076856E5,7.345061E5,2.3831875E4,3.6908138E5,0E0,6.2811656E5,1.27763125E5,0E0,0E0,2.5872638E5,1.0969628E5,0E0,0E0,0E0,0E0,0E0,0E0,0E0,0E0],"parents":[2147483647,0,0,1,1,2,2,3,3,4,4,5,5,7,7,8,8,11,11,12,12],"right_children":[2,4,6,8,10,12,-1,14,16,-1,-1,18,20,-1,-1,-1,-1,-1,-1,-1,-1],"split_conditions":[1E0,1E0,1E0,1E0,1E0,1E0,1.783652E1,1E0,1E0,1.0558895E1,1.7056315E0,1E0,1E0,9.098191E-1,1.9696957E1,1.2319679E1,-4.30038E0,-2.1991193E0,5.745446E0,1.6348751E1,1.3127136E0],"split_indices":[28,133,157,178,17,237,0,135,35,0,0,128,40,0,0,0,0,0,0,0,0],"split_type":[0,0,0,0,0,0,0,0,0,0,0,0,0,0,0,0,0,0,0,0,0],"sum_hessian":[9.66E2,4.56E2,5.1E2,4.28E2,2.8E1,5.07E2,3E0,4.1E2,1.8E1,2.7E1,1E0,5.02E2,5E0,4.06E2,4E0,1.7E1,1E0,4.92E2,1E1,3E0,2E0],"tree_param":{"num_deleted":"0","num_feature":"275","num_nodes":"21","size_leaf_vector":"1"}},{"base_weights":[1.2354401E0,-2.8484196E1,5.1013096E1,-5.689784E1,-4.278269E0,1.0208856E2,-2.2203147E0,-8.3480995E1,-3.929613E1,-7.8819423E0,2.0741699E2,1.1464276E2,-1.3520679E2,-9.106892E0,3.4144193E2,-4.516432E0,2.772917E0,-2.1111567E0,5.236152E0,-5.330557E-1,1.2347137E1,2.9256811E1,2.9232125E0,5.3718104E0,2.267227E1,-4.1815476E0,-9.161048E0,-9.3784475E-1,1.035085E1,1.9883074E1,6.6964355E0],"categories":[],"categories_nodes":[],"categories_segments":[],"categories_sizes":[],"default_left":[0,0,0,0,0,0,0,0,0,0,0,0,0,0,0,0,0,0,0,0,0,0,0,0,0,0,0,0,0,0,0],"id":45,"left_children":[1,3,5,7,9,11,13,15,17,19,21,23,25,27,29,-1,-1,-1,-1,-1,-1,-1,-1,-1,-1,-1,-1,-1,-1,-1,-1],"loss_changes":[1.4305414E6,4.1632822E5,9.830033E5,1.28672375E5,2.5066084E5,5.573855E5,4.2163628E5,1.07635125E5,7.324111E4,2.2971138E5,2.92338E5,4.041425E5,1.58640625E4,3.6587806E5,1.4202906E4,0E0,0E0,0E0,0E0,0E0,0E0,0E0,0E0,0E0,0E0,0E0,0E0,0E0,0E0,0E0,0E0],"parents":[2147483647,0,0,1,1,2,2,3,3,4,4,5,5,6,6,7,7,8,8,9,9,10,10,11,11,12,12,13,13,14,14],"right_children":[2,4,6,8,10,12,14,16,18,20,22,24,26,28,30,-1,-1,-1,-1,-1,-1,-1,-1,-1,-1,-1,-1,-1,-1,-1,-1],"split_conditions":[2.6E0,1.28E2,1E0,1.8E0,1E0,1E0,1E0,1E0,1E0,1E0,2.56E2,1E0,1.8E2,1E0,5.12E2,-4.516432E0,2.772917E0,-2.1111567E0,5.236152E0,-5.330557E-1,1.2347137E1,2.9256811E1,2.9232125E0,5.3718104E0,2.267227E1,-4.1815476E0,-9.161048E0,-9.3784475E-1,1.035085E1,1.9883074E1,6.6964355E0],"split_indices":[3,4,44,3,222,128,157,99,35,258,4,21,4,133,4,0,0,0,0,0,0,0,0,0,0,0,0,0,0,0,0],"split_type":[0,0,0,0,0,0,0,0,0,0,0,0,0,0,0,0,0,0,0,0,0,0,0,0,0,0,0,0,0,0,0],"sum_hessian":[9.66E2,6.05E2,3.61E2,2.78E2,3.27E2,1.84E2,1.77E2,1.1E2,1.68E2,3.22E2,5E0,1.75E2,9E0,1.74E2,3E0,1.05E2,5E0,1.65E2,3E0,3.19E2,3E0,1E0,4E0,1.72E2,3E0,5E0,4E0,1.67E2,7E0,2E0,1E0],"tree_param":{"num_deleted":"0","num_feature":"275","num_nodes":"31","size_leaf_vector":"1"}},{"base_weights":[1.2233714E0,-2.702251E1,4.8532555E1,3.6776623E1,-3.9079636E1,9.702396E1,-2.0078952E0,6.5692375E1,-9.5634254E1,-4.214194E1,2.0113728E2,1.089905E2,-1.2914873E2,-9.27131E0,3.6041205E2,1.2578815E0,1.042912E1,5.7285047E0,-5.5922866E0,-2.4657524E0,2.6558216E0,2.9835536E0,1.56934805E1,4.976206E0,1.7373047E1,-3.9914784E0,-8.753892E0,-1.3047272E0,7.630732E0,4.6609254E0,2.2432287E1],"categories":[],"categories_nodes":[],"categories_segments":[],"categories_sizes":[],"default_left":[0,0,0,0,0,0,0,0,0,0,0,0,0,0,0,0,0,0,0,0,0,0,0,0,0,0,0,0,0,0,0],"id":46,"left_children":[1,3,5,7,9,11,13,15,17,19,21,23,25,27,29,-1,-1,-1,-1,-1,-1,-1,-1,-1,-1,-1,-1,-1,-1,-1,-1],"loss_changes":[1.2921796E6,4.664899E5,8.8605344E5,3.7261656E5,3.790352E5,5.0638838E5,4.6892284E5,4.5784106E5,6.604225E4,3.4535056E5,9.429631E4,3.7889275E5,1.4531078E4,4.772324E5,6.1603156E4,0E0,0E0,0E0,0E0,0E0,0E0,0E0,0E0,0E0,0E0,0E0,0E0,0E0,0E0,0E0,0E0],"parents":[2147483647,0,0,1,1,2,2,3,3,4,4,5,5,6,6,7,7,8,8,9,9,10,10,11,11,12,12,13,13,14,14],"right_children":[2,4,6,8,10,12,14,16,18,20,22,24,26,28,30,-1,-1,-1,-1,-1,-1,-1,-1,-1,-1,-1,-1,-1,-1,-1,-1],"split_conditions":[2.6E0,1.3E0,1E0,1E0,1E0,1E0,2.4E1,1E0,1.09E0,1E0,1.58E0,1E0,1.2E1,1E0,2.07E0,1.2578815E0,1.042912E1,5.7285047E0,-5.5922866E0,-2.4657524E0,2.6558216E0,2.9835536E0,1.56934805E1,4.976206E0,1.7373047E1,-3.9914784E0,-8.753892E0,-1.3047272E0,7.630732E0,4.6609254E0,2.2432287E1],"split_indices":[3,1,44,32,237,128,0,14,1,248,1,30,0,30,1,0,0,0,0,0,0,0,0,0,0,0,0,0,0,0,0],"split_type":[0,0,0,0,0,0,0,0,0,0,0,0,0,0,0,0,0,0,0,0,0,0,0,0,0,0,0,0,0,0,0],"sum_hessian":[9.66E2,6.05E2,3.61E2,9.6E1,5.09E2,1.84E2,1.77E2,7.9E1,1.7E1,5.03E2,6E0,1.75E2,9E0,1.74E2,3E0,6.2E1,1.7E1,1E0,1.6E1,4.68E2,3.5E1,3E0,3E0,1.69E2,6E0,5E0,4E0,1.58E2,1.6E1,1E0,2E0],"tree_param":{"num_deleted":"0","num_feature":"275","num_nodes":"31","size_leaf_vector":"1"}},{"base_weights":[1.2003423E0,-2.5646038E1,4.616544E1,3.4999054E1,-3.7107132E1,9.219879E1,-1.8133581E0,6.2481262E1,-9.0848656E1,-6.4299225E1,-1.2962738E1,1.0360466E2,-1.2336211E2,-8.31308E0,3.2250323E2,1.1954906E0,9.922564E0,5.537554E0,-5.3211455E0,-3.3051758E0,5.998439E0,-1.6962255E0,2.3952293E0,4.834349E0,2.1487331E1,-3.8100488E0,-8.364829E0,3.9999185E0,-1.743705E0,1.86652E1,6.5167117E0],"categories":[],"categories_nodes":[],"categories_segments":[],"categories_sizes":[],"default_left":[0,0,0,0,0,0,0,0,0,0,0,0,0,0,0,0,0,0,0,0,0,0,0,0,0,0,0,0,0,0,0],"id":47,"left_children":[1,3,5,7,9,11,13,15,17,19,21,23,25,27,29,-1,-1,-1,-1,-1,-1,-1,-1,-1,-1,-1,-1,-1,-1,-1,-1],"loss_changes":[1.1673025E6,4.2150778E5,7.9850144E5,3.3659044E5,3.3408862E5,4.60013E5,3.7550472E5,4.1457006E5,6.0839125E4,8.359269E4,3.4594006E5,3.7517788E5,1.3309922E4,4.1070944E5,9.841031E3,0E0,0E0,0E0,0E0,0E0,0E0,0E0,0E0,0E0,0E0,0E0,0E0,0E0,0E0,0E0,0E0],"parents":[2147483647,0,0,1,1,2,2,3,3,4,4,5,5,6,6,7,7,8,8,9,9,10,10,11,11,12,12,13,13,14,14],"right_children":[2,4,6,8,10,12,14,16,18,20,22,24,26,28,30,-1,-1,-1,-1,-1,-1,-1,-1,-1,-1,-1,-1,-1,-1,-1,-1],"split_conditions":[2.6E0,1.3E0,1E0,1E0,2.3E0,1E0,1E0,1E0,1.09E0,1E0,1E0,1E0,1.8E2,2.02E0,5.12E2,1.1954906E0,9.922564E0,5.537554E0,-5.3211455E0,-3.3051758E0,5.998439E0,-1.6962255E0,2.3952293E0,4.834349E0,2.1487331E1,-3.8100488E0,-8.364829E0,3.9999185E0,-1.743705E0,1.86652E1,6.5167117E0],"split_indices":[3,1,44,32,3,128,157,14,1,39,100,21,4,1,4,0,0,0,0,0,0,0,0,0,0,0,0,0,0,0,0],"split_type":[0,0,0,0,0,0,0,0,0,0,0,0,0,0,0,0,0,0,0,0,0,0,0,0,0,0,0,0,0,0,0],"sum_hessian":[9.66E2,6.05E2,3.61E2,9.6E1,5.09E2,1.84E2,1.77E2,7.9E1,1.7E1,2.39E2,2.7E2,1.75E2,9E0,1.74E2,3E0,6.2E1,1.7E1,1E0,1.6E1,2.37E2,2E0,2.01E2,6.9E1,1.72E2,3E0,5E0,4E0,4E1,1.34E2,2E0,1E0],"tree_param":{"num_deleted":"0","num_feature":"275","num_nodes":"31","size_leaf_vector":"1"}},{"base_weights":[1.1694571E0,-5.0656843E0,1.8043576E2,-5.262321E1,1.6481405E1,1.9872246E2,-1.3186507E1,-5.709643E1,8.316594E1,1.0191985E1,1.751775E2,2.1513054E2,-1.0057471E1,-3.0076284E0,2.9486024E0,1.4778095E0,8.542303E0,1.7395984E-1,6.028654E0,2.920039E0,9.50569E0,1.1571171E1,-8.850302E0],"categories":[],"categories_nodes":[],"categories_segments":[],"categories_sizes":[],"default_left":[0,0,0,0,0,0,0,0,0,0,0,0,0,0,0,0,0,0,0,0,0,0,0],"id":48,"left_children":[1,3,5,7,9,11,-1,13,15,17,19,21,-1,-1,-1,-1,-1,-1,-1,-1,-1,-1,-1],"loss_changes":[1.0807631E6,9.5804025E5,2.9018012E5,1.7943575E5,6.4138875E5,2.2831238E5,0E0,1.0198231E5,4.2130055E4,